{"learner":{"attributes":{"scikit_learn":"{\"_estimator_type\": \"regressor\"}"},"feature_names":["temperature_c","humidity_percent","pm25","pm25_lag1","pm25_lag24"],"feature_types":["float","int","float","float","float"],"gradient_booster":{"model":{"cats":{"enc":[],"feature_segments":[],"sorted_idx":[]},"gbtree_model_param":{"num_parallel_tree":"1","num_trees":"100"},"iteration_indptr":[0,1,2,3,4,5,6,7,8,9,10,11,12,13,14,15,16,17,18,19,20,21,22,23,24,25,26,27,28,29,30,31,32,33,34,35,36,37,38,39,40,41,42,43,44,45,46,47,48,49,50,51,52,53,54,55,56,57,58,59,60,61,62,63,64,65,66,67,68,69,70,71,72,73,74,75,76,77,78,79,80,81,82,83,84,85,86,87,88,89,90,91,92,93,94,95,96,97,98,99,100],"tree_info":[0,0,0,0,0,0,0,0,0,0,0,0,0,0,0,0,0,0,0,0,0,0,0,0,0,0,0,0,0,0,0,0,0,0,0,0,0,0,0,0,0,0,0,0,0,0,0,0,0,0,0,0,0,0,0,0,0,0,0,0,0,0,0,0,0,0,0,0,0,0,0,0,0,0,0,0,0,0,0,0,0,0,0,0,0,0,0,0,0,0,0,0,0,0,0,0,0,0,0,0],"trees":[{"base_weights":[-7.8055035E-7,-6.235396E0,2.0707409E1,-1.2885411E1,-1.950769E0,1.2474408E1,3.1716423E1,-1.5689545E1,-9.321632E0,-3.8644028E0,1.7459927E0,1.5219643E1,7.6469116E0,2.5194324E1,3.553965E1,-1.5927044E1,-6.3910574E-1,-9.977259E0,-1.794262E0,-1.2243991E0,-5.407439E0,-2.8844533E0,9.480818E0,1.8633541E1,1.0564071E1,1.4113751E1,2.8508174E0,2.6669828E1,1.5509275E0,8.636956E-1,3.6141895E1,-5.753653E-1,-1.6098318E1,-5.615554E0,-1.1664526E1,4.0948486E-1,-6.283653E-1,6.5317984E0,-3.1042757E0,-7.44901E0,-1.6535037E0,1.002139E0,-4.124111E0,5.5448422E0,1.4045565E1,2.1785545E1,1.1592318E1,1.9818844E0,5.756784E0,2.0482761E1,2.9876676E0,1.5218505E1,-4.3280584E-1,1.3549529E0,2.807664E1,2.2597892E0,3.764641E1,-1.3922328E0,-1.7307996E0,-6.2387025E-1,-1.252485E-1,-1.2642487E0,-8.5374147E-1,-1.1077457E-1,3.3415747E-1,4.460035E0,-1.3431837E-1,-2.4098738E-1,-6.230063E-1,-3.2715458E-1,-8.266323E-1,-7.168656E-1,-4.3869358E-2,1.4083623E0,-3.39414E-2,-5.666644E-1,-2.5854656E-2,1.4262213E0,2.4710266E-1,2.1806161E0,3.466969E-1,1.0288844E0,2.8022532E0,1.7846473E0,-8.014953E-2,-1.408281E-1,2.021494E0,2.2828093E0,1.0288347E0,-9.3819946E-2,7.886348E-1,1.6902898E-1,1.9446195E0,-5.6874055E-1,4.848844E-1,2.9134424E0,6.3769555E-1,3.0998685E0,4.094384E0],"categories":[],"categories_nodes":[],"categories_segments":[],"categories_sizes":[],"default_left":[0,0,0,0,0,0,0,0,0,0,0,0,0,0,0,0,0,0,0,0,0,0,0,0,0,0,0,0,0,0,0,0,0,0,0,0,0,0,0,0,0,0,0,0,0,0,0,0,0,0,0,0,0,0,0,0,0,0,0,0,0,0,0,0,0,0,0,0,0,0,0,0,0,0,0,0,0,0,0,0,0,0,0,0,0,0,0,0,0,0,0,0,0,0,0,0,0,0,0],"id":0,"left_children":[1,3,5,7,9,11,13,15,17,19,21,23,25,27,29,31,-1,33,35,37,39,41,43,45,47,49,51,53,-1,-1,55,-1,57,59,61,63,-1,65,67,69,71,73,75,77,79,81,83,-1,85,87,89,91,93,-1,95,-1,97,-1,-1,-1,-1,-1,-1,-1,-1,-1,-1,-1,-1,-1,-1,-1,-1,-1,-1,-1,-1,-1,-1,-1,-1,-1,-1,-1,-1,-1,-1,-1,-1,-1,-1,-1,-1,-1,-1,-1,-1,-1,-1],"loss_changes":[1.6514305E5,2.7983316E4,2.6432977E4,3.7011719E3,4.2442217E3,2.1498105E3,2.2464688E3,3.708047E2,8.309424E2,1.60246E3,7.369563E3,1.519668E3,1.9447612E3,3.0088477E2,9.3540625E2,2.6980078E2,0E0,1.0972764E3,1.5097528E2,2.1636387E3,1.8960005E3,6.256609E2,1.3055581E3,1.1012871E3,2.0214443E3,1.8520815E3,1.5497981E3,3.9480273E2,0E0,0E0,6.775547E2,0E0,2.9601172E2,1.17252686E2,2.376416E2,5.2636833E1,0E0,8.753791E3,2.4328223E2,5.226582E2,5.9314294E2,5.6636426E2,5.8288513E2,1.116968E3,2.7977666E3,2.6515762E3,1.6420737E3,0E0,3.4470576E3,1.7159424E2,2.189462E2,4.2467517E2,8.87919E2,0E0,6.634922E2,0E0,1.7753906E2,0E0,0E0,0E0,0E0,0E0,0E0,0E0,0E0,0E0,0E0,0E0,0E0,0E0,0E0,0E0,0E0,0E0,0E0,0E0,0E0,0E0,0E0,0E0,0E0,0E0,0E0,0E0,0E0,0E0,0E0,0E0,0E0,0E0,0E0,0E0,0E0,0E0,0E0,0E0,0E0,0E0,0E0],"parents":[2147483647,0,0,1,1,2,2,3,3,4,4,5,5,6,6,7,7,8,8,9,9,10,10,11,11,12,12,13,13,14,14,15,15,17,17,18,18,19,19,20,20,21,21,22,22,23,23,24,24,25,25,26,26,27,27,30,30,32,32,33,33,34,34,35,35,37,37,38,38,39,39,40,40,41,41,42,42,43,43,44,44,45,45,46,46,48,48,49,49,50,50,51,51,52,52,54,54,56,56],"right_children":[2,4,6,8,10,12,14,16,18,20,22,24,26,28,30,32,-1,34,36,38,40,42,44,46,48,50,52,54,-1,-1,56,-1,58,60,62,64,-1,66,68,70,72,74,76,78,80,82,84,-1,86,88,90,92,94,-1,96,-1,98,-1,-1,-1,-1,-1,-1,-1,-1,-1,-1,-1,-1,-1,-1,-1,-1,-1,-1,-1,-1,-1,-1,-1,-1,-1,-1,-1,-1,-1,-1,-1,-1,-1,-1,-1,-1,-1,-1,-1,-1,-1,-1],"split_conditions":[4.356E1,2.29E1,6.117E1,1.864E1,3.189E1,3.19E1,6.648E1,3.169E1,4.624E1,3E1,4E1,6.6E1,3.5E1,7.5E1,2.2E1,1.3E1,-6.3910574E-1,3E1,2.95E1,3.47E1,2.823E1,2.752E1,3.16E1,3.04E1,3.682E1,3.84E1,3.38E1,3.427E1,1.5509275E0,8.636956E-1,3.112E1,-5.753653E-1,3.27E1,4.28E1,6.4E1,7.1E1,-6.283653E-1,2.077E1,4.21E1,2.391E1,2.391E1,3.101E1,4.167E1,2.65E1,3.271E1,5.161E1,5.7E1,1.9818844E0,6.251E1,5.646E1,5.496E1,4.2E1,4.835E1,1.3549529E0,7.169E1,2.2597892E0,2.77E1,-1.3922328E0,-1.7307996E0,-6.2387025E-1,-1.252485E-1,-1.2642487E0,-8.5374147E-1,-1.1077457E-1,3.3415747E-1,4.460035E0,-1.3431837E-1,-2.4098738E-1,-6.230063E-1,-3.2715458E-1,-8.266323E-1,-7.168656E-1,-4.3869358E-2,1.4083623E0,-3.39414E-2,-5.666644E-1,-2.5854656E-2,1.4262213E0,2.4710266E-1,2.1806161E0,3.466969E-1,1.0288844E0,2.8022532E0,1.7846473E0,-8.014953E-2,-1.408281E-1,2.021494E0,2.2828093E0,1.0288347E0,-9.3819946E-2,7.886348E-1,1.6902898E-1,1.9446195E0,-5.6874055E-1,4.848844E-1,2.9134424E0,6.3769555E-1,3.0998685E0,4.094384E0],"split_indices":[2,2,2,2,3,0,3,4,4,1,1,1,1,1,1,1,0,1,0,0,4,4,0,0,4,0,4,4,0,0,4,0,0,0,1,1,0,4,0,3,3,2,4,0,4,3,3,0,4,4,4,1,4,0,2,0,0,0,0,0,0,0,0,0,0,0,0,0,0,0,0,0,0,0,0,0,0,0,0,0,0,0,0,0,0,0,0,0,0,0,0,0,0,0,0,0,0,0,0],"split_type":[0,0,0,0,0,0,0,0,0,0,0,0,0,0,0,0,0,0,0,0,0,0,0,0,0,0,0,0,0,0,0,0,0,0,0,0,0,0,0,0,0,0,0,0,0,0,0,0,0,0,0,0,0,0,0,0,0,0,0,0,0,0,0,0,0,0,0,0,0,0,0,0,0,0,0,0,0,0,0,0,0,0,0,0,0,0,0,0,0,0,0,0,0,0,0,0,0,0,0],"sum_hessian":[1.277E3,9.82E2,2.95E2,3.84E2,5.98E2,1.7E2,1.25E2,2.13E2,1.71E2,3.94E2,2.04E2,1.07E2,6.3E1,4.9E1,7.6E1,2.07E2,6E0,1.57E2,1.4E1,1.46E2,2.48E2,1.28E2,7.6E1,6E1,4.7E1,2.6E1,3.7E1,4.1E1,8E0,2E0,7.4E1,4E0,2.03E2,4.5E1,1.12E2,1E1,4E0,2.8E1,1.18E2,1.6E2,8.8E1,3.1E1,9.7E1,4.2E1,3.4E1,4E1,2E1,1.5E1,3.2E1,1.6E1,1E1,7E0,3E1,5E0,3.6E1,9E0,6.5E1,7.7E1,1.26E2,3.9E1,6E0,8.3E1,2.9E1,7E0,3E0,4E0,2.4E1,9.8E1,2E1,2.7E1,1.33E2,1.5E1,7.3E1,2E0,2.9E1,6.9E1,2.8E1,1E1,3.2E1,1.9E1,1.5E1,1.5E1,2.5E1,1.3E1,7E0,2.2E1,1E1,1.2E1,4E0,6E0,4E0,2E0,5E0,1.5E1,1.5E1,3.4E1,2E0,2.5E1,4E1],"tree_param":{"num_deleted":"0","num_feature":"5","num_nodes":"99","size_leaf_vector":"1"}},{"base_weights":[2.4357019E-2,-5.6129546E0,1.8745483E1,-1.1370908E1,-1.5756767E0,1.1317226E1,2.8677914E1,-1.414086E1,-8.224343E0,-3.3051605E0,1.5956997E0,1.3784698E1,6.9765363E0,2.2804035E1,3.2119682E1,-1.4352121E1,-5.8432513E-1,-8.922221E0,-3.62908E0,-8.457173E-1,-4.783519E0,-2.5899453E0,8.587291E0,1.6860935E1,9.588133E0,1.2850762E1,2.6191509E0,1.9878582E1,2.8906727E1,1.4934438E1,3.310568E1,-5.293359E-1,-1.4503796E1,-5.05009E0,-1.0320534E1,-6.3051337E-1,2.4141438E-1,6.6873546E0,-2.6725025E0,-6.760794E0,-7.422909E-1,9.4487727E-1,-3.717745E0,4.8205395E0,1.2529169E1,1.1253412E1,2.0194101E1,1.7960827E1,5.2380943E0,1.8629288E1,2.752065E0,1.2519524E1,-8.850866E-1,2.240616E1,1.2745616E1,3.029665E0,5.418869E-1,1.9898461E0,3.3375958E-1,2.0564082E0,3.457092E1,-1.2547945E0,-1.5590824E0,-5.6072056E-1,-1.1451296E-1,-1.1376612E0,-7.8083545E-1,-1.0518731E-1,3.0909577E-1,4.1032324E0,-7.464867E-2,-1.9891217E-1,-5.636725E-1,6.7868114E-1,-7.068779E-1,-3.3307073E-1,9.4485894E-2,1.3144714E0,-3.0660221E-2,-5.1080734E-1,-2.3358215E-2,1.2965649E0,1.7748384E-1,1.8950472E0,3.859962E-1,1.5962485E0,4.821709E-1,2.5328057E0,7.387686E-1,9.192662E-1,1.9277123E0,-1.2735766E-1,1.8377217E0,2.0720885E0,9.465279E-1,-8.577835E-2,7.25544E-1,1.9492464E-1,1.677118E0,-6.855409E-1,4.3942633E-1,2.4968874E0,1.3518944E0,1.4776047E0,4.990739E-1,2.817297E0,3.8305347E0],"categories":[],"categories_nodes":[],"categories_segments":[],"categories_sizes":[],"default_left":[0,0,0,0,0,0,0,0,0,0,0,0,0,0,0,0,0,0,0,0,0,0,0,0,0,0,0,0,0,0,0,0,0,0,0,0,0,0,0,0,0,0,0,0,0,0,0,0,0,0,0,0,0,0,0,0,0,0,0,0,0,0,0,0,0,0,0,0,0,0,0,0,0,0,0,0,0,0,0,0,0,0,0,0,0,0,0,0,0,0,0,0,0,0,0,0,0,0,0,0,0,0,0,0,0,0,0],"id":1,"left_children":[1,3,5,7,9,11,13,15,17,19,21,23,25,27,29,31,-1,33,35,37,39,41,43,45,47,49,51,53,55,57,59,-1,61,63,65,-1,67,69,71,73,75,77,79,81,83,85,87,89,91,93,95,97,99,101,103,-1,-1,-1,-1,-1,105,-1,-1,-1,-1,-1,-1,-1,-1,-1,-1,-1,-1,-1,-1,-1,-1,-1,-1,-1,-1,-1,-1,-1,-1,-1,-1,-1,-1,-1,-1,-1,-1,-1,-1,-1,-1,-1,-1,-1,-1,-1,-1,-1,-1,-1,-1],"loss_changes":[1.3498127E5,2.2833352E4,2.1514523E4,3.4136133E3,3.1809993E3,1.735332E3,1.8148203E3,2.9126953E2,5.8335156E2,1.3594312E3,6.021426E3,1.2325742E3,1.6045034E3,3.1803125E2,8.103203E2,2.0901562E2,0E0,8.466787E2,2.8117868E2,1.971977E3,1.8647871E3,5.177806E2,1.0829048E3,9.128867E2,1.6541538E3,1.524331E3,1.3294247E3,3.8149902E2,2.92875E2,2.789889E2,6.121875E2,0E0,2.3808203E2,9.365271E1,2.3218848E2,0E0,4.747464E1,7.179451E3,2.217425E2,7.030493E2,3.4377667E2,4.9260123E2,4.7353162E2,9.940985E2,1.9865522E3,6.802173E2,2.2455469E3,7.4555664E0,2.846807E3,1.2971729E2,1.850451E2,4.167207E2,9.441877E2,2.5460645E2,1.1520557E2,0E0,0E0,0E0,0E0,0E0,4.260625E2,0E0,0E0,0E0,0E0,0E0,0E0,0E0,0E0,0E0,0E0,0E0,0E0,0E0,0E0,0E0,0E0,0E0,0E0,0E0,0E0,0E0,0E0,0E0,0E0,0E0,0E0,0E0,0E0,0E0,0E0,0E0,0E0,0E0,0E0,0E0,0E0,0E0,0E0,0E0,0E0,0E0,0E0,0E0,0E0,0E0,0E0],"parents":[2147483647,0,0,1,1,2,2,3,3,4,4,5,5,6,6,7,7,8,8,9,9,10,10,11,11,12,12,13,13,14,14,15,15,17,17,18,18,19,19,20,20,21,21,22,22,23,23,24,24,25,25,26,26,27,27,28,28,29,29,30,30,32,32,33,33,34,34,36,36,37,37,38,38,39,39,40,40,41,41,42,42,43,43,44,44,45,45,46,46,47,47,48,48,49,49,50,50,51,51,52,52,53,53,54,54,60,60],"right_children":[2,4,6,8,10,12,14,16,18,20,22,24,26,28,30,32,-1,34,36,38,40,42,44,46,48,50,52,54,56,58,60,-1,62,64,66,-1,68,70,72,74,76,78,80,82,84,86,88,90,92,94,96,98,100,102,104,-1,-1,-1,-1,-1,106,-1,-1,-1,-1,-1,-1,-1,-1,-1,-1,-1,-1,-1,-1,-1,-1,-1,-1,-1,-1,-1,-1,-1,-1,-1,-1,-1,-1,-1,-1,-1,-1,-1,-1,-1,-1,-1,-1,-1,-1,-1,-1,-1,-1,-1,-1],"split_conditions":[4.356E1,2.349E1,6.117E1,1.864E1,3.189E1,3.19E1,6.648E1,3.169E1,4.368E1,3E1,4E1,6.6E1,3.5E1,6.905E1,2.6E1,1.3E1,-5.8432513E-1,2.9E1,5.5E1,3.47E1,2.823E1,2.752E1,3.15E1,5.172E1,3.682E1,3.84E1,3.626E1,3.12E1,7.025E1,7.169E1,3.112E1,-5.293359E-1,3.27E1,4.28E1,2.157E1,-6.3051337E-1,7.1E1,2.077E1,4.21E1,2.362E1,4E1,3.101E1,4.167E1,2.65E1,3.271E1,5.165E1,3.04E1,3.282E1,6.251E1,5.646E1,5.496E1,4.2E1,4.835E1,7.4E1,4.2E1,3.029665E0,5.418869E-1,1.9898461E0,3.3375958E-1,2.0564082E0,2.78E1,-1.2547945E0,-1.5590824E0,-5.6072056E-1,-1.1451296E-1,-1.1376612E0,-7.8083545E-1,-1.0518731E-1,3.0909577E-1,4.1032324E0,-7.464867E-2,-1.9891217E-1,-5.636725E-1,6.7868114E-1,-7.068779E-1,-3.3307073E-1,9.4485894E-2,1.3144714E0,-3.0660221E-2,-5.1080734E-1,-2.3358215E-2,1.2965649E0,1.7748384E-1,1.8950472E0,3.859962E-1,1.5962485E0,4.821709E-1,2.5328057E0,7.387686E-1,9.192662E-1,1.9277123E0,-1.2735766E-1,1.8377217E0,2.0720885E0,9.465279E-1,-8.577835E-2,7.25544E-1,1.9492464E-1,1.677118E0,-6.855409E-1,4.3942633E-1,2.4968874E0,1.3518944E0,1.4776047E0,4.990739E-1,2.817297E0,3.8305347E0],"split_indices":[2,2,2,2,3,0,3,4,4,1,1,1,1,4,1,1,0,1,1,0,4,4,0,3,4,0,4,0,2,2,4,0,0,0,2,0,1,4,0,2,1,2,4,0,4,4,0,4,4,4,4,1,4,1,1,0,0,0,0,0,0,0,0,0,0,0,0,0,0,0,0,0,0,0,0,0,0,0,0,0,0,0,0,0,0,0,0,0,0,0,0,0,0,0,0,0,0,0,0,0,0,0,0,0,0,0,0],"split_type":[0,0,0,0,0,0,0,0,0,0,0,0,0,0,0,0,0,0,0,0,0,0,0,0,0,0,0,0,0,0,0,0,0,0,0,0,0,0,0,0,0,0,0,0,0,0,0,0,0,0,0,0,0,0,0,0,0,0,0,0,0,0,0,0,0,0,0,0,0,0,0,0,0,0,0,0,0,0,0,0,0,0,0,0,0,0,0,0,0,0,0,0,0,0,0,0,0,0,0,0,0,0,0,0,0,0,0],"sum_hessian":[1.277E3,9.82E2,2.95E2,4.04E2,5.78E2,1.7E2,1.25E2,2.13E2,1.91E2,3.74E2,2.04E2,1.07E2,6.3E1,4.9E1,7.6E1,2.07E2,6E0,1.65E2,2.6E1,1.41E2,2.33E2,1.28E2,7.6E1,6E1,4.7E1,2.6E1,3.7E1,3.6E1,1.3E1,5E0,7.1E1,4E0,2.03E2,4.5E1,1.2E2,1.5E1,1.1E1,2.7E1,1.14E2,1.56E2,7.7E1,3.1E1,9.7E1,4E1,3.6E1,2.4E1,3.6E1,1.5E1,3.2E1,1.6E1,1E1,9E0,2.8E1,2.5E1,1.1E1,1.2E1,1E0,3E0,2E0,9E0,6.2E1,7.7E1,1.26E2,3.9E1,6E0,8.2E1,3.8E1,8E0,3E0,4E0,2.3E1,9.4E1,2E1,3E0,1.53E2,3E1,4.7E1,2E0,2.9E1,6.9E1,2.8E1,1E1,3E1,2E1,1.6E1,1.3E1,1.1E1,2.5E1,1.1E1,3E0,1.2E1,2.2E1,1E1,1.2E1,4E0,6E0,4E0,3E0,6E0,1.3E1,1.5E1,1.8E1,7E0,8E0,3E0,2.6E1,3.6E1],"tree_param":{"num_deleted":"0","num_feature":"5","num_nodes":"107","size_leaf_vector":"1"}},{"base_weights":[5.0225504E-2,-5.0510936E0,1.699126E1,-1.0250973E1,-1.4051485E0,1.02743435E1,2.5972225E1,-1.2745127E1,-7.4176397E0,-2.9666462E0,1.4581037E0,1.2497963E1,6.3614497E0,2.0711573E1,2.9050932E1,-1.0622413E1,-1.3580002E1,-8.045624E0,-3.2819722E0,-7.3814446E-1,-4.306307E0,-2.1763766E0,8.059854E0,1.5262546E1,8.724264E0,1.170118E1,2.4000237E0,1.8339544E1,2.7454256E1,1.3828262E1,2.9916002E1,-1.11363735E1,-5.568394E-1,-1.3817202E1,-3.9377484E0,-4.7800183E0,-9.412005E0,-5.7140265E0,2.3426437E-1,6.1624975E0,-2.4118822E0,-6.0848937E0,-6.711215E-1,1.4789698E0,-3.3491492E0,4.5508747E0,1.2667152E1,9.167403E0,1.7801601E1,1.6342682E0,4.7661138E0,1.6943922E1,2.5350184E0,1.39453945E1,-2.0052701E-1,2.0481117E1,1.1635778E1,2.9170098E0,5.147926E-1,1.8406076E0,3.1150895E-1,2.476109E1,3.3420906E1,-1.1803303E0,-6.7547846E-1,-1.0552396E0,-1.4605521E0,-4.5810142E-1,-6.823426E-2,-5.2544916E-1,-1.04697526E-1,-1.0235845E0,-6.3172835E-1,-2.3342915E-1,-6.030111E-1,-9.583741E-2,2.8591347E-1,3.7749734E0,-6.7494735E-2,-1.8244658E-1,-5.6908435E-1,6.277801E-1,-6.366491E-1,6.636161E-3,-5.692643E-1,1.2268399E0,3.871229E-2,-4.6219674E-1,-3.259484E-2,1.1786953E0,2.0009434E-1,1.9123119E0,3.4618273E-1,3.360822E-1,1.2035499E0,2.161339E0,8.634209E-1,-1.5601826E-1,1.5967149E0,7.335283E-1,1.8478968E0,-9.024819E-2,6.840515E-1,1.4476548E-1,1.865496E0,3.3590353E-1,-5.0170386E-1,2.282235E0,1.2742571E0,1.3462623E0,4.6164343E-1,7.916616E-1,2.6811478E0,2.177608E0,3.609921E0],"categories":[],"categories_nodes":[],"categories_segments":[],"categories_sizes":[],"default_left":[0,0,0,0,0,0,0,0,0,0,0,0,0,0,0,0,0,0,0,0,0,0,0,0,0,0,0,0,0,0,0,0,0,0,0,0,0,0,0,0,0,0,0,0,0,0,0,0,0,0,0,0,0,0,0,0,0,0,0,0,0,0,0,0,0,0,0,0,0,0,0,0,0,0,0,0,0,0,0,0,0,0,0,0,0,0,0,0,0,0,0,0,0,0,0,0,0,0,0,0,0,0,0,0,0,0,0,0,0,0,0,0,0,0,0],"id":2,"left_children":[1,3,5,7,9,11,13,15,17,19,21,23,25,27,29,31,33,35,37,39,41,43,45,47,49,51,53,55,57,59,61,63,-1,65,67,69,71,73,75,77,79,81,83,85,87,89,91,93,95,-1,97,99,101,103,105,107,109,-1,-1,-1,-1,111,113,-1,-1,-1,-1,-1,-1,-1,-1,-1,-1,-1,-1,-1,-1,-1,-1,-1,-1,-1,-1,-1,-1,-1,-1,-1,-1,-1,-1,-1,-1,-1,-1,-1,-1,-1,-1,-1,-1,-1,-1,-1,-1,-1,-1,-1,-1,-1,-1,-1,-1,-1,-1],"loss_changes":[1.1053266E5,1.8621775E4,1.7589172E4,2.767504E3,2.5930127E3,1.4083281E3,1.4390078E3,2.35E2,4.7224414E2,1.1163594E3,4.936297E3,9.935801E2,1.3257056E3,2.961914E2,6.003047E2,1.0683057E2,2.8866406E2,6.957129E2,2.3223389E2,1.6549441E3,1.5088413E3,5.7510974E2,1.1225381E3,7.8083496E2,1.3695413E3,1.254554E3,1.1437207E3,3.3595215E2,2.708496E2,2.369209E2,4.733164E2,8.975879E1,0E0,2.2163672E2,7.344635E0,8.48313E1,2.3108496E2,3.0164795E0,4.0306374E1,6.0728066E3,2.1112054E2,5.8653076E2,2.8923416E2,3.8400397E2,3.871399E2,7.6982947E2,1.7761064E3,2.9262732E2,1.28104E3,0E0,2.3633264E3,1.1519678E2,1.6897504E2,3.850066E2,5.6548193E2,2.3459766E2,9.172974E1,0E0,0E0,0E0,0E0,9.2749023E2,4.614375E2,0E0,0E0,0E0,0E0,0E0,0E0,0E0,0E0,0E0,0E0,0E0,0E0,0E0,0E0,0E0,0E0,0E0,0E0,0E0,0E0,0E0,0E0,0E0,0E0,0E0,0E0,0E0,0E0,0E0,0E0,0E0,0E0,0E0,0E0,0E0,0E0,0E0,0E0,0E0,0E0,0E0,0E0,0E0,0E0,0E0,0E0,0E0,0E0,0E0,0E0,0E0,0E0],"parents":[2147483647,0,0,1,1,2,2,3,3,4,4,5,5,6,6,7,7,8,8,9,9,10,10,11,11,12,12,13,13,14,14,15,15,16,16,17,17,18,18,19,19,20,20,21,21,22,22,23,23,24,24,25,25,26,26,27,27,28,28,29,29,30,30,31,31,33,33,34,34,35,35,36,36,37,37,38,38,39,39,40,40,41,41,42,42,43,43,44,44,45,45,46,46,47,47,48,48,50,50,51,51,52,52,53,53,54,54,55,55,56,56,61,61,62,62],"right_children":[2,4,6,8,10,12,14,16,18,20,22,24,26,28,30,32,34,36,38,40,42,44,46,48,50,52,54,56,58,60,62,64,-1,66,68,70,72,74,76,78,80,82,84,86,88,90,92,94,96,-1,98,100,102,104,106,108,110,-1,-1,-1,-1,112,114,-1,-1,-1,-1,-1,-1,-1,-1,-1,-1,-1,-1,-1,-1,-1,-1,-1,-1,-1,-1,-1,-1,-1,-1,-1,-1,-1,-1,-1,-1,-1,-1,-1,-1,-1,-1,-1,-1,-1,-1,-1,-1,-1,-1,-1,-1,-1,-1,-1,-1,-1,-1],"split_conditions":[4.356E1,2.349E1,6.117E1,1.864E1,3.189E1,3.19E1,6.648E1,3.21E1,4.368E1,3E1,4.1E1,6.6E1,3.5E1,6.969E1,2.6E1,2.151E1,2.027E1,3E1,5.5E1,3.47E1,2.823E1,2.752E1,3.16E1,5.149E1,3.682E1,3.84E1,3.154E1,3.12E1,7.025E1,7.169E1,2.79E1,1.815E1,-5.568394E-1,1.354E1,4.1E1,4.28E1,6.8E1,1.923E1,7.1E1,2.077E1,3.546E1,2.362E1,3.158E1,3.101E1,4.167E1,2.65E1,3.271E1,2.88E1,3.04E1,1.6342682E0,6.116E1,4.46E1,3.9E1,4.2E1,3.38E1,7.4E1,4.2E1,2.9170098E0,5.147926E-1,1.8406076E0,3.1150895E-1,5.8E1,5.916E1,-1.1803303E0,-6.7547846E-1,-1.0552396E0,-1.4605521E0,-4.5810142E-1,-6.823426E-2,-5.2544916E-1,-1.04697526E-1,-1.0235845E0,-6.3172835E-1,-2.3342915E-1,-6.030111E-1,-9.583741E-2,2.8591347E-1,3.7749734E0,-6.7494735E-2,-1.8244658E-1,-5.6908435E-1,6.277801E-1,-6.366491E-1,6.636161E-3,-5.692643E-1,1.2268399E0,3.871229E-2,-4.6219674E-1,-3.259484E-2,1.1786953E0,2.0009434E-1,1.9123119E0,3.4618273E-1,3.360822E-1,1.2035499E0,2.161339E0,8.634209E-1,-1.5601826E-1,1.5967149E0,7.335283E-1,1.8478968E0,-9.024819E-2,6.840515E-1,1.4476548E-1,1.865496E0,3.3590353E-1,-5.0170386E-1,2.282235E0,1.2742571E0,1.3462623E0,4.6164343E-1,7.916616E-1,2.6811478E0,2.177608E0,3.609921E0],"split_indices":[2,2,2,2,3,0,3,0,4,1,1,1,1,4,1,4,3,1,1,0,4,4,0,2,4,0,4,0,2,2,0,2,0,4,1,0,1,3,1,4,4,2,3,2,4,0,4,0,0,0,4,2,0,1,0,1,1,0,0,0,0,1,4,0,0,0,0,0,0,0,0,0,0,0,0,0,0,0,0,0,0,0,0,0,0,0,0,0,0,0,0,0,0,0,0,0,0,0,0,0,0,0,0,0,0,0,0,0,0,0,0,0,0,0,0],"split_type":[0,0,0,0,0,0,0,0,0,0,0,0,0,0,0,0,0,0,0,0,0,0,0,0,0,0,0,0,0,0,0,0,0,0,0,0,0,0,0,0,0,0,0,0,0,0,0,0,0,0,0,0,0,0,0,0,0,0,0,0,0,0,0,0,0,0,0,0,0,0,0,0,0,0,0,0,0,0,0,0,0,0,0,0,0,0,0,0,0,0,0,0,0,0,0,0,0,0,0,0,0,0,0,0,0,0,0,0,0,0,0,0,0,0,0],"sum_hessian":[1.277E3,9.82E2,2.95E2,4.04E2,5.78E2,1.7E2,1.25E2,2.13E2,1.91E2,3.74E2,2.04E2,1.07E2,6.3E1,4.9E1,7.6E1,6.4E1,1.49E2,1.65E2,2.6E1,1.41E2,2.33E2,1.32E2,7.2E1,6E1,4.7E1,2.6E1,3.7E1,3.9E1,1E1,5E0,7.1E1,5.7E1,7E0,1.45E2,4E0,5E1,1.15E2,1.5E1,1.1E1,2.7E1,1.14E2,1.56E2,7.7E1,3.2E1,1E2,4.2E1,3E1,1.9E1,4.1E1,1.5E1,3.2E1,1.6E1,1E1,6E0,3.1E1,2.8E1,1.1E1,9E0,1E0,3E0,2E0,3.2E1,3.9E1,4.8E1,9E0,3.1E1,1.14E2,3E0,1E0,4.4E1,6E0,8.9E1,2.6E1,2E0,1.3E1,8E0,3E0,4E0,2.3E1,9.8E1,1.6E1,3E0,1.53E2,6.8E1,9E0,2E0,3E1,7E1,3E1,1E1,3.2E1,1.7E1,1.3E1,7E0,1.2E1,2.8E1,1.3E1,2.1E1,1.1E1,3E0,1.3E1,6E0,4E0,2E0,4E0,1.8E1,1.3E1,2E1,8E0,8E0,3E0,4E0,2.8E1,9E0,3E1],"tree_param":{"num_deleted":"0","num_feature":"5","num_nodes":"115","size_leaf_vector":"1"}},{"base_weights":[6.967338E-2,-4.547606E0,1.5403173E1,-1.0081998E1,-1.7480695E0,9.320938E0,2.3535389E1,-1.1641129E1,-7.593788E0,-3.365899E0,9.842091E-1,1.1318901E1,5.8037376E0,1.8816338E1,2.6294052E1,-3.7014496E-1,-1.1783551E1,-3.9279623E0,-8.851186E0,-1.3289683E0,-4.4478097E0,-1.8955766E0,5.9329042E0,9.881402E0,1.7957428E1,1.06486635E1,2.2085598E0,1.66397E1,2.5020811E1,6.569252E-1,2.6732456E1,-1.1943779E1,-4.6923414E-1,-4.33061E0,2.752099E-1,-9.773609E0,-2.2100492E0,6.0080214E0,-2.3583922E0,-3.2391996E0,-7.0117683E0,8.618974E-1,-3.0314696E0,-1.2657051E0,8.007731E0,1.2183504E1,4.2665462E0,8.452388E0,2.0963028E1,1.7180391E1,4.2779226E0,1.2838035E1,-1.8565536E-1,1.8555645E1,1.0622858E1,2.6544788E0,4.8905298E-1,1.6451343E0,2.7885164E1,-1.2327315E0,-8.888675E-1,-2.6688346E-1,-6.877833E-1,1.5627365E-1,-6.7487784E-2,-1.0879656E0,-5.4171497E-1,-4.2835858E-2,-4.2172953E-1,3.0483873E0,-3.1624982E-1,-1.4681949E-1,-6.319799E-1,1.23911105E-1,-4.8738393E-1,-6.345305E-1,-1.0918403E0,4.6861902E-1,-1.7639405E-1,-4.0350232E-1,-3.4386452E-2,6.686522E-1,-2.9625496E-1,4.7214428E-1,1.1549284E0,1.6368942E0,6.217623E-1,1.385807E-1,1.7240785E0,1.7441483E-1,9.4452065E-1,9.036023E-1,2.2310119E0,1.8773307E0,5.612905E-1,-3.4249093E-2,8.363596E-1,1.3511454E-1,1.7162561E0,-3.998216E-1,3.876794E-1,2.0648792E0,1.1609898E0,1.2265943E0,4.2702016E-1,2.493431E0,3.554819E0],"categories":[],"categories_nodes":[],"categories_segments":[],"categories_sizes":[],"default_left":[0,0,0,0,0,0,0,0,0,0,0,0,0,0,0,0,0,0,0,0,0,0,0,0,0,0,0,0,0,0,0,0,0,0,0,0,0,0,0,0,0,0,0,0,0,0,0,0,0,0,0,0,0,0,0,0,0,0,0,0,0,0,0,0,0,0,0,0,0,0,0,0,0,0,0,0,0,0,0,0,0,0,0,0,0,0,0,0,0,0,0,0,0,0,0,0,0,0,0,0,0,0,0,0,0,0,0],"id":3,"left_children":[1,3,5,7,9,11,13,15,17,19,21,23,25,27,29,-1,31,33,35,37,39,41,43,45,47,49,51,53,55,-1,57,59,-1,61,63,65,67,69,71,73,75,77,79,81,83,85,87,89,91,93,95,97,99,101,103,-1,-1,-1,105,-1,-1,-1,-1,-1,-1,-1,-1,-1,-1,-1,-1,-1,-1,-1,-1,-1,-1,-1,-1,-1,-1,-1,-1,-1,-1,-1,-1,-1,-1,-1,-1,-1,-1,-1,-1,-1,-1,-1,-1,-1,-1,-1,-1,-1,-1,-1,-1],"loss_changes":[9.055124E4,1.5212713E4,1.4421391E4,1.1918164E3,2.894229E3,1.1359658E3,1.1455469E3,1.8367383E2,5.644546E2,8.998418E2,3.4885342E3,8.531846E2,1.0912576E3,2.5890625E2,4.9023828E2,0E0,1.6778711E2,6.042578E1,5.6648975E2,1.1017831E3,8.0777246E2,4.8810315E2,1.354364E3,1.1242812E3,3.3704248E2,1.0500264E3,9.6945496E2,2.640039E2,2.0764014E2,0E0,4.3008594E2,1.1540039E2,0E0,1.1709741E2,5.947709E0,3.4581348E2,4.4685272E1,4.136618E3,4.3857843E2,1.3529973E3,1.5202783E2,4.701969E2,2.9529962E2,3.031767E2,7.601699E2,1.496293E3,1.0226189E3,2.3486542E1,7.2734375E0,1.3416577E2,2.8602695E2,3.2453857E2,5.11127E2,1.8188477E2,7.287744E1,0E0,0E0,0E0,6.060547E2,0E0,0E0,0E0,0E0,0E0,0E0,0E0,0E0,0E0,0E0,0E0,0E0,0E0,0E0,0E0,0E0,0E0,0E0,0E0,0E0,0E0,0E0,0E0,0E0,0E0,0E0,0E0,0E0,0E0,0E0,0E0,0E0,0E0,0E0,0E0,0E0,0E0,0E0,0E0,0E0,0E0,0E0,0E0,0E0,0E0,0E0,0E0,0E0],"parents":[2147483647,0,0,1,1,2,2,3,3,4,4,5,5,6,6,7,7,8,8,9,9,10,10,11,11,12,12,13,13,14,14,16,16,17,17,18,18,19,19,20,20,21,21,22,22,23,23,24,24,25,25,26,26,27,27,28,28,30,30,31,31,33,33,34,34,35,35,36,36,37,37,38,38,39,39,40,40,41,41,42,42,43,43,44,44,45,45,46,46,47,47,48,48,49,49,50,50,51,51,52,52,53,53,54,54,58,58],"right_children":[2,4,6,8,10,12,14,16,18,20,22,24,26,28,30,-1,32,34,36,38,40,42,44,46,48,50,52,54,56,-1,58,60,-1,62,64,66,68,70,72,74,76,78,80,82,84,86,88,90,92,94,96,98,100,102,104,-1,-1,-1,106,-1,-1,-1,-1,-1,-1,-1,-1,-1,-1,-1,-1,-1,-1,-1,-1,-1,-1,-1,-1,-1,-1,-1,-1,-1,-1,-1,-1,-1,-1,-1,-1,-1,-1,-1,-1,-1,-1,-1,-1,-1,-1,-1,-1,-1,-1,-1,-1],"split_conditions":[4.356E1,2.151E1,6.117E1,1.831E1,3.099E1,3.19E1,6.648E1,1.3E1,3.1E1,3E1,4E1,6.599E1,3.5E1,6.969E1,2.2E1,-3.7014496E-1,3.169E1,2.378E1,3.161E1,2.077E1,3.39E1,2.752E1,3.277E1,5.561E1,5.172E1,3.55E1,3.154E1,3.12E1,7.025E1,6.569252E-1,3.112E1,6.7E1,-4.6923414E-1,3.011E1,3.12E1,6.8E1,2.98E1,3.66E1,3.546E1,5E1,3.88E1,3.58E1,4.167E1,2.81E1,3.16E1,5.7E1,5.936E1,4.602E1,5E1,4.976E1,5.496E1,4.2E1,4.835E1,7.4E1,4.2E1,2.6544788E0,4.8905298E-1,1.6451343E0,8.12E1,-1.2327315E0,-8.888675E-1,-2.6688346E-1,-6.877833E-1,1.5627365E-1,-6.7487784E-2,-1.0879656E0,-5.4171497E-1,-4.2835858E-2,-4.2172953E-1,3.0483873E0,-3.1624982E-1,-1.4681949E-1,-6.319799E-1,1.23911105E-1,-4.8738393E-1,-6.345305E-1,-1.0918403E0,4.6861902E-1,-1.7639405E-1,-4.0350232E-1,-3.4386452E-2,6.686522E-1,-2.9625496E-1,4.7214428E-1,1.1549284E0,1.6368942E0,6.217623E-1,1.385807E-1,1.7240785E0,1.7441483E-1,9.4452065E-1,9.036023E-1,2.2310119E0,1.8773307E0,5.612905E-1,-3.4249093E-2,8.363596E-1,1.3511454E-1,1.7162561E0,-3.998216E-1,3.876794E-1,2.0648792E0,1.1609898E0,1.2265943E0,4.2702016E-1,2.493431E0,3.554819E0],"split_indices":[2,2,2,2,3,0,3,1,1,1,1,4,1,4,1,0,4,3,4,4,0,4,2,4,3,0,4,0,2,0,4,1,0,4,0,1,0,0,4,1,0,0,4,0,0,3,3,2,1,4,4,1,4,1,1,0,0,0,2,0,0,0,0,0,0,0,0,0,0,0,0,0,0,0,0,0,0,0,0,0,0,0,0,0,0,0,0,0,0,0,0,0,0,0,0,0,0,0,0,0,0,0,0,0,0,0,0],"split_type":[0,0,0,0,0,0,0,0,0,0,0,0,0,0,0,0,0,0,0,0,0,0,0,0,0,0,0,0,0,0,0,0,0,0,0,0,0,0,0,0,0,0,0,0,0,0,0,0,0,0,0,0,0,0,0,0,0,0,0,0,0,0,0,0,0,0,0,0,0,0,0,0,0,0,0,0,0,0,0,0,0,0,0,0,0,0,0,0,0,0,0,0,0,0,0,0,0,0,0,0,0,0,0,0,0,0,0],"sum_hessian":[1.277E3,9.82E2,2.95E2,3.29E2,6.53E2,1.7E2,1.25E2,2E2,1.29E2,4.1E2,2.43E2,1.07E2,6.3E1,4.9E1,7.6E1,4E0,1.96E2,3.4E1,9.5E1,1.43E2,2.67E2,1.54E2,8.9E1,9E1,1.7E1,2.6E1,3.7E1,3.9E1,1E1,2E0,7.4E1,1.91E2,5E0,3.1E1,3E0,8.3E1,1.2E1,1.7E1,1.26E2,1.83E2,8.4E1,4.5E1,1.09E2,2E1,6.9E1,6.3E1,2.7E1,5E0,1.2E1,1.2E1,1.4E1,6E0,3.1E1,2.8E1,1.1E1,9E0,1E0,9E0,6.5E1,1.67E2,2.4E1,2E1,1.1E1,1E0,2E0,6.5E1,1.8E1,7E0,5E0,4E0,1.3E1,1.04E2,2.2E1,4.9E1,1.34E2,7.4E1,1E1,1.8E1,2.7E1,7.9E1,3E1,3E0,1.7E1,3.7E1,3.2E1,3.6E1,2.7E1,2.3E1,4E0,1E0,4E0,2E0,1E1,1E1,2E0,7E0,7E0,2E0,4E0,1.6E1,1.5E1,2E1,8E0,8E0,3E0,5E1,1.5E1],"tree_param":{"num_deleted":"0","num_feature":"5","num_nodes":"107","size_leaf_vector":"1"}},{"base_weights":[8.27563E-2,-4.005726E0,1.4277792E1,-8.36353E0,-1.0024722E0,8.684237E0,2.1311796E1,-1.0491748E1,-6.2360415E0,-2.1413698E0,1.9371278E0,7.65971E0,1.6397995E1,1.7095163E1,2.3773092E1,-3.4053332E-1,-1.0618348E1,-6.852813E0,-3.3451588E0,-1.1592778E0,-3.8274179E0,-1.8443469E0,7.6372848E0,1.373556E1,5.7296324E0,3.262553E-1,1.7836016E1,1.5097715E1,2.2804504E1,2.590085E1,1.7651367E1,-1.0760451E1,-4.3013126E-1,-4.207809E0,-7.875749E0,-4.8920574E0,4.141264E-1,2.7904968E0,-2.807564E0,-5.2517567E0,4.344589E-1,-2.1671324E0,6.4442863E0,4.2598825E0,1.1092652E1,2.4080276E-2,1.4137196E1,7.213797E0,-1.3840082E0,1.3165716E0,2.1959867E0,1.6811316E1,9.698374E0,2.4155755E0,4.6460038E-1,1.8643717E0,2.9213121E1,8.578208E0,2.1918505E1,-9.607835E-1,-1.1746165E0,-3.4265396E-1,-8.405919E-1,-8.8370174E-1,-5.184394E-1,-4.1861307E-2,-5.651848E-1,-1.8992516E-1,1.8082218E-1,2.594054E0,-5.0937533E-2,-3.4042192E-1,-2.321832E-2,-4.4140282E-1,-7.014034E-1,-2.2964828E-2,5.129139E-1,-1.6315356E-1,-5.8249825E-1,7.328631E-1,1.895626E-1,1.8889421E-1,1.0899384E0,1.6452913E0,3.920829E-1,1.5773233E0,8.7969846E-1,1.2195992E0,4.3533602E-1,-5.7995164E-1,7.644723E-1,1.8682238E0,1.0577905E0,1.039784E0,1.00212865E-1,2.4626257E0,4.0237465E0,3.4702042E-1,1.4095662E0,1.053264E0,2.388725E0],"categories":[],"categories_nodes":[],"categories_segments":[],"categories_sizes":[],"default_left":[0,0,0,0,0,0,0,0,0,0,0,0,0,0,0,0,0,0,0,0,0,0,0,0,0,0,0,0,0,0,0,0,0,0,0,0,0,0,0,0,0,0,0,0,0,0,0,0,0,0,0,0,0,0,0,0,0,0,0,0,0,0,0,0,0,0,0,0,0,0,0,0,0,0,0,0,0,0,0,0,0,0,0,0,0,0,0,0,0,0,0,0,0,0,0,0,0,0,0,0,0],"id":4,"left_children":[1,3,5,7,9,11,13,15,17,19,21,23,25,27,29,-1,31,33,35,37,39,41,43,45,47,-1,49,51,53,55,57,59,-1,61,63,65,67,69,71,73,75,77,79,81,83,-1,85,87,89,-1,-1,91,93,-1,-1,-1,95,97,99,-1,-1,-1,-1,-1,-1,-1,-1,-1,-1,-1,-1,-1,-1,-1,-1,-1,-1,-1,-1,-1,-1,-1,-1,-1,-1,-1,-1,-1,-1,-1,-1,-1,-1,-1,-1,-1,-1,-1,-1,-1,-1],"loss_changes":[7.422739E4,1.2987596E4,1.1067617E4,1.7683145E3,1.9760632E3,1.1467705E3,9.0127344E2,1.4416992E2,3.4259375E2,6.99301E2,3.5706604E3,1.6099688E3,2.81812E2,2.2590918E2,5.4577734E2,0E0,1.3055664E2,4.214126E2,2.230047E2,1.7656315E3,9.4925757E2,2.8151062E2,7.229778E2,1.80875E2,1.1819016E3,0E0,1.9036133E1,2.070498E2,1.5767578E2,7.774297E2,7.0245654E2,1.0528711E2,0E0,1.3190973E2,2.6463916E2,8.940381E1,4.2135105E1,6.124588E3,2.9270288E2,1.4176807E2,1.2588872E2,1.8053226E2,2.197998E0,5.303769E2,1.1656619E3,0E0,1.4955762E2,1.2580215E3,8.4166437E2,0E0,0E0,1.4058496E2,6.2572754E1,0E0,0E0,0E0,8.2951953E2,2.0473376E2,8.464258E1,0E0,0E0,0E0,0E0,0E0,0E0,0E0,0E0,0E0,0E0,0E0,0E0,0E0,0E0,0E0,0E0,0E0,0E0,0E0,0E0,0E0,0E0,0E0,0E0,0E0,0E0,0E0,0E0,0E0,0E0,0E0,0E0,0E0,0E0,0E0,0E0,0E0,0E0,0E0,0E0,0E0,0E0],"parents":[2147483647,0,0,1,1,2,2,3,3,4,4,5,5,6,6,7,7,8,8,9,9,10,10,11,11,12,12,13,13,14,14,16,16,17,17,18,18,19,19,20,20,21,21,22,22,23,23,24,24,26,26,27,27,28,28,29,29,30,30,31,31,33,33,34,34,35,35,36,36,37,37,38,38,39,39,40,40,41,41,42,42,43,43,44,44,46,46,47,47,48,48,51,51,52,52,56,56,57,57,58,58],"right_children":[2,4,6,8,10,12,14,16,18,20,22,24,26,28,30,-1,32,34,36,38,40,42,44,46,48,-1,50,52,54,56,58,60,-1,62,64,66,68,70,72,74,76,78,80,82,84,-1,86,88,90,-1,-1,92,94,-1,-1,-1,96,98,100,-1,-1,-1,-1,-1,-1,-1,-1,-1,-1,-1,-1,-1,-1,-1,-1,-1,-1,-1,-1,-1,-1,-1,-1,-1,-1,-1,-1,-1,-1,-1,-1,-1,-1,-1,-1,-1,-1,-1,-1,-1,-1],"split_conditions":[4.46E1,2.349E1,6.117E1,1.831E1,3.358E1,6.599E1,6.648E1,1.3E1,3.768E1,4.5E1,4.1E1,3.726E1,5.149E1,6.969E1,7.152E1,-3.4053332E-1,3.169E1,3.1E1,5.5E1,3.5E1,2.813E1,4.433E1,3.15E1,2.498E1,7E1,3.262553E-1,7.678E1,3.12E1,7.025E1,6.081E1,8.12E1,3.39E1,-4.3013126E-1,3.358E1,2.157E1,2.6E1,2.014E1,2.465E1,3.134E1,3.16E1,6.9E1,5.573E1,3.71E1,7.4E1,3.271E1,2.4080276E-2,5.624E1,3.03E1,5.976E1,1.3165716E0,2.1959867E0,7.4E1,5.3E1,2.4155755E0,4.6460038E-1,1.8643717E0,7.897E1,8.12E1,2.75E1,-9.607835E-1,-1.1746165E0,-3.4265396E-1,-8.405919E-1,-8.8370174E-1,-5.184394E-1,-4.1861307E-2,-5.651848E-1,-1.8992516E-1,1.8082218E-1,2.594054E0,-5.0937533E-2,-3.4042192E-1,-2.321832E-2,-4.4140282E-1,-7.014034E-1,-2.2964828E-2,5.129139E-1,-1.6315356E-1,-5.8249825E-1,7.328631E-1,1.895626E-1,1.8889421E-1,1.0899384E0,1.6452913E0,3.920829E-1,1.5773233E0,8.7969846E-1,1.2195992E0,4.3533602E-1,-5.7995164E-1,7.644723E-1,1.8682238E0,1.0577905E0,1.039784E0,1.00212865E-1,2.4626257E0,4.0237465E0,3.4702042E-1,1.4095662E0,1.053264E0,2.388725E0],"split_indices":[2,2,2,2,2,4,3,1,4,1,1,4,2,4,4,0,4,1,1,0,4,2,0,4,1,0,4,0,2,4,4,0,0,4,2,1,2,4,2,0,1,4,0,1,4,0,2,0,4,0,0,1,1,0,0,0,2,3,0,0,0,0,0,0,0,0,0,0,0,0,0,0,0,0,0,0,0,0,0,0,0,0,0,0,0,0,0,0,0,0,0,0,0,0,0,0,0,0,0,0,0],"split_type":[0,0,0,0,0,0,0,0,0,0,0,0,0,0,0,0,0,0,0,0,0,0,0,0,0,0,0,0,0,0,0,0,0,0,0,0,0,0,0,0,0,0,0,0,0,0,0,0,0,0,0,0,0,0,0,0,0,0,0,0,0,0,0,0,0,0,0,0,0,0,0,0,0,0,0,0,0,0,0,0,0,0,0,0,0,0,0,0,0,0,0,0,0,0,0,0,0,0,0,0,0],"sum_hessian":[1.277E3,9.92E2,2.85E2,4.04E2,5.88E2,1.6E2,1.25E2,2E2,2.04E2,4.24E2,1.64E2,1.43E2,1.7E1,4.9E1,7.6E1,4E0,1.96E2,1.67E2,3.7E1,2.69E2,1.55E2,9.9E1,6.5E1,3.3E1,1.1E2,2E0,1.5E1,3.9E1,1E1,5.4E1,2.2E1,1.91E2,5E0,4.8E1,1.19E2,2.6E1,1.1E1,7.9E1,1.9E2,1.16E2,3.9E1,9.6E1,3E0,3.4E1,3.1E1,1E0,3.2E1,9.1E1,1.9E1,9E0,6E0,2.8E1,1.1E1,9E0,1E0,1.9E1,3.5E1,8E0,1.4E1,9.3E1,9.8E1,4.2E1,6E0,8.6E1,3.3E1,4E0,2.2E1,4E0,7E0,9E0,7E1,1.54E2,3.6E1,8.1E1,3.5E1,3.5E1,4E0,8.5E1,1.1E1,2E0,1E0,2.6E1,8E0,1.7E1,1.4E1,2.3E1,9E0,3.2E1,5.9E1,1.3E1,6E0,2E1,8E0,1E1,1E0,2.7E1,8E0,5E0,3E0,3E0,1.1E1],"tree_param":{"num_deleted":"0","num_feature":"5","num_nodes":"101","size_leaf_vector":"1"}},{"base_weights":[9.605077E-2,-3.6898003E0,1.2668333E1,-7.5422583E0,-9.887033E-1,7.6758685E0,1.9343279E1,-9.457031E0,-5.6280546E0,-1.923641E0,1.5812143E0,1.2341775E1,6.5129128E0,1.552457E1,2.1571749E1,-1.01447E1,-7.9628453E0,-6.182921E0,-3.0268567E0,-1.0352778E0,-3.4488616E0,-1.9346555E0,7.0308275E0,-5.011448E-1,1.3622997E1,7.107816E0,-5.720666E0,1.3689594E1,2.0785887E1,2.3462595E1,1.6112255E1,-8.002646E0,-1.0971078E1,6.0958356E-1,-8.231853E0,-3.8111765E0,-7.0998588E0,-4.4253345E0,3.7195635E-1,2.543236E0,-2.5287116E0,-4.736349E0,4.0326157E-1,-2.141139E0,8.7373924E-1,-3.2569027E-1,8.007534E0,2.1716754E0,1.0811826E1,-9.010091E-1,7.4226704E0,2.6024875E-1,-7.5416064E-1,1.523108E1,8.823537E0,2.1981735E1,4.413704E-1,1.5388507E0,2.5844273E1,7.915564E0,1.995612E1,-5.5872446E-1,-8.702052E-1,-1.1131196E0,-4.5856118E-1,1.41222E-2,7.731533E-2,-3.1329057E-1,-8.5102856E-1,-3.091855E-1,-7.685413E-1,-7.963473E-1,-4.681202E-1,-1.0864514E-1,-5.327565E-1,-1.747311E-1,1.650004E-1,2.360589E0,-4.591551E-2,-1.8215029E-1,-4.6567234E-1,-3.978009E-1,-6.332115E-1,1.1479135E-1,-3.271228E-1,-1.6952036E-1,-5.351815E-1,1.2522241E0,3.962698E-1,1.1661993E0,-4.7960863E-1,4.3555078E-1,9.8755467E-1,1.5841762E0,4.6579224E-1,1.0251387E0,3.4049913E-1,6.352631E-1,2.3012455E0,2.211115E0,3.6660802E0,3.881392E-1,1.4690112E0,9.742691E-1,2.1697586E0],"categories":[],"categories_nodes":[],"categories_segments":[],"categories_sizes":[],"default_left":[0,0,0,0,0,0,0,0,0,0,0,0,0,0,0,0,0,0,0,0,0,0,0,0,0,0,0,0,0,0,0,0,0,0,0,0,0,0,0,0,0,0,0,0,0,0,0,0,0,0,0,0,0,0,0,0,0,0,0,0,0,0,0,0,0,0,0,0,0,0,0,0,0,0,0,0,0,0,0,0,0,0,0,0,0,0,0,0,0,0,0,0,0,0,0,0,0,0,0,0,0,0,0,0,0],"id":5,"left_children":[1,3,5,7,9,11,13,15,17,19,21,23,25,27,29,31,33,35,37,39,41,43,45,-1,47,49,51,53,55,57,59,61,63,65,67,69,71,73,75,77,79,81,83,85,-1,-1,87,-1,89,-1,91,-1,-1,93,95,97,-1,-1,99,101,103,-1,-1,-1,-1,-1,-1,-1,-1,-1,-1,-1,-1,-1,-1,-1,-1,-1,-1,-1,-1,-1,-1,-1,-1,-1,-1,-1,-1,-1,-1,-1,-1,-1,-1,-1,-1,-1,-1,-1,-1,-1,-1,-1,-1],"loss_changes":[6.0875445E4,1.0221506E4,9.715555E3,1.431207E3,1.3942123E3,8.4750684E2,7.3735156E2,1.2574805E2,2.7716504E2,5.722831E2,2.9834226E3,8.019712E2,1.0522749E3,1.9816992E2,4.1684375E2,1.4940234E2,1.618291E2,3.3829834E2,1.822663E2,1.449385E3,7.7560156E2,2.2804999E2,6.390134E2,0E0,4.7054297E2,7.418262E2,1.25718704E2,1.65646E2,1.1834424E2,6.599375E2,5.666963E2,2.0642822E1,4.5064453E1,1.2064314E-1,6.703955E1,1.1279205E2,2.1337598E2,7.554779E1,3.5385365E1,5.069905E3,2.78963E2,1.16396484E2,1.1320371E2,1.2551245E2,0E0,0E0,9.7300806E2,0E0,3.8766528E2,0E0,9.425488E2,0E0,0E0,1.13458984E2,5.7936584E1,1.4902344E1,0E0,0E0,8.4494336E2,1.889491E2,5.5401855E1,0E0,0E0,0E0,0E0,0E0,0E0,0E0,0E0,0E0,0E0,0E0,0E0,0E0,0E0,0E0,0E0,0E0,0E0,0E0,0E0,0E0,0E0,0E0,0E0,0E0,0E0,0E0,0E0,0E0,0E0,0E0,0E0,0E0,0E0,0E0,0E0,0E0,0E0,0E0,0E0,0E0,0E0,0E0,0E0],"parents":[2147483647,0,0,1,1,2,2,3,3,4,4,5,5,6,6,7,7,8,8,9,9,10,10,11,11,12,12,13,13,14,14,15,15,16,16,17,17,18,18,19,19,20,20,21,21,22,22,24,24,25,25,26,26,27,27,28,28,29,29,30,30,31,31,32,32,33,33,34,34,35,35,36,36,37,37,38,38,39,39,40,40,41,41,42,42,43,43,46,46,48,48,50,50,53,53,54,54,55,55,58,58,59,59,60,60],"right_children":[2,4,6,8,10,12,14,16,18,20,22,24,26,28,30,32,34,36,38,40,42,44,46,-1,48,50,52,54,56,58,60,62,64,66,68,70,72,74,76,78,80,82,84,86,-1,-1,88,-1,90,-1,92,-1,-1,94,96,98,-1,-1,100,102,104,-1,-1,-1,-1,-1,-1,-1,-1,-1,-1,-1,-1,-1,-1,-1,-1,-1,-1,-1,-1,-1,-1,-1,-1,-1,-1,-1,-1,-1,-1,-1,-1,-1,-1,-1,-1,-1,-1,-1,-1,-1,-1,-1,-1],"split_conditions":[4.356E1,2.349E1,6.117E1,1.831E1,3.358E1,2.71E1,6.648E1,1.599E1,3.768E1,4.5E1,4.1E1,2.45E1,7.5E1,6.969E1,7.152E1,1.354E1,1.492E1,3.1E1,5.5E1,3.5E1,2.813E1,5.311E1,2.259E1,-5.011448E-1,6.9E1,2.72E1,3.386E1,3.12E1,7.025E1,5.694E1,8.12E1,4E1,6.6E1,3.19E1,1.3E1,3.358E1,2.157E1,4.167E1,2.014E1,2.465E1,3.1E1,3.16E1,3.32E1,5.489E1,8.7373924E-1,-3.2569027E-1,3.21E1,2.1716754E0,5.957E1,-9.010091E-1,5.358E1,2.6024875E-1,-7.5416064E-1,7.169E1,4.2E1,6.047E1,4.413704E-1,1.5388507E0,7.897E1,8.416E1,2.75E1,-5.5872446E-1,-8.702052E-1,-1.1131196E0,-4.5856118E-1,1.41222E-2,7.731533E-2,-3.1329057E-1,-8.5102856E-1,-3.091855E-1,-7.685413E-1,-7.963473E-1,-4.681202E-1,-1.0864514E-1,-5.327565E-1,-1.747311E-1,1.650004E-1,2.360589E0,-4.591551E-2,-1.8215029E-1,-4.6567234E-1,-3.978009E-1,-6.332115E-1,1.1479135E-1,-3.271228E-1,-1.6952036E-1,-5.351815E-1,1.2522241E0,3.962698E-1,1.1661993E0,-4.7960863E-1,4.3555078E-1,9.8755467E-1,1.5841762E0,4.6579224E-1,1.0251387E0,3.4049913E-1,6.352631E-1,2.3012455E0,2.211115E0,3.6660802E0,3.881392E-1,1.4690112E0,9.742691E-1,2.1697586E0],"split_indices":[2,2,2,2,2,0,3,2,4,1,1,0,1,4,4,4,3,1,1,0,4,3,4,0,1,0,4,0,2,4,4,1,1,0,1,4,2,4,2,4,1,0,0,4,0,0,4,0,3,0,2,0,0,2,1,3,0,0,2,3,0,0,0,0,0,0,0,0,0,0,0,0,0,0,0,0,0,0,0,0,0,0,0,0,0,0,0,0,0,0,0,0,0,0,0,0,0,0,0,0,0,0,0,0,0],"split_type":[0,0,0,0,0,0,0,0,0,0,0,0,0,0,0,0,0,0,0,0,0,0,0,0,0,0,0,0,0,0,0,0,0,0,0,0,0,0,0,0,0,0,0,0,0,0,0,0,0,0,0,0,0,0,0,0,0,0,0,0,0,0,0,0,0,0,0,0,0,0,0,0,0,0,0,0,0,0,0,0,0,0,0,0,0,0,0,0,0,0,0,0,0,0,0,0,0,0,0,0,0,0,0,0,0],"sum_hessian":[1.277E3,9.82E2,2.95E2,4.04E2,5.78E2,1.7E2,1.25E2,2E2,2.04E2,4.24E2,1.54E2,3.2E1,1.38E2,4.9E1,7.6E1,1.33E2,6.7E1,1.67E2,3.7E1,2.69E2,1.55E2,9.4E1,6E1,2E0,3E1,1.32E2,6E0,3.9E1,1E1,5.4E1,2.2E1,4E1,9.3E1,2E0,6.5E1,4.8E1,1.19E2,2.6E1,1.1E1,7.9E1,1.9E2,1.16E2,3.9E1,9.3E1,1E0,5E0,5.5E1,6E0,2.4E1,2E0,1.3E2,1E0,5E0,2.8E1,1.1E1,9E0,1E0,1.4E1,4E1,8E0,1.4E1,1.1E1,2.9E1,9E1,3E0,1E0,1E0,4E0,6.1E1,4.2E1,6E0,8.6E1,3.3E1,6E0,2E1,4E0,7E0,9E0,7E1,1.44E2,4.6E1,8.1E1,3.5E1,3.3E1,6E0,8.3E1,1E1,2.5E1,3E1,2.3E1,1E0,5.9E1,7.1E1,2.6E1,2E0,8E0,3E0,1E0,8E0,3.2E1,8E0,6E0,2E0,3E0,1.1E1],"tree_param":{"num_deleted":"0","num_feature":"5","num_nodes":"105","size_leaf_vector":"1"}},{"base_weights":[9.931277E-2,-3.251295E0,1.1732369E1,-6.5810738E0,-6.223483E-1,7.097635E0,1.7561417E1,-8.531594E0,-4.9061337E0,-1.5537729E0,1.5942626E0,6.197594E0,1.3903645E1,1.822883E1,7.9965377E0,-9.152623E0,-7.1823387E0,-7.486082E0,-4.5264926E0,-1.7092614E0,7.2422757E0,-1.4944398E0,6.2499595E0,1.1645396E1,4.4730644E0,6.357867E0,1.63168E1,1.0908647E1,1.9280457E1,4.1151878E-1,9.072089E-1,-7.2372336E0,-9.890691E0,5.791047E-1,-7.426308E0,1.107976E-1,-7.8325834E0,-5.0542107E0,-1.4331186E0,-1.7936936E-1,-2.8031871E0,1.2835083E0,1.1390475E0,-1.7758679E0,5.7038E0,3.320944E0,9.258259E0,1.0986328E-3,1.1997621E1,4.5813215E-1,6.728545E0,1.2760372E-1,7.1190256E-1,6.897537E-1,1.7402344E0,4.7931224E-1,1.2421645E0,1.7635708E1,2.6915958E1,-8.700938E-1,-6.058138E-1,-1.0006611E0,-3.0388978E-1,1.3416099E-2,7.344961E-2,-7.689588E-1,-2.676377E-1,-8.044543E-1,-1.0548363E-1,-3.8636968E-1,-6.354629E-1,-6.600268E-2,-3.669891E-1,7.0068544E-1,-1.358682E-1,-3.946476E-1,-6.403178E-2,1.0531108E-3,2.55122E-1,-1.3218968E-1,-4.8813388E-1,6.549688E-1,1.5830688E-1,1.3340719E-1,8.9125675E-1,1.3809297E0,3.1797954E-1,1.3501235E0,7.189185E-1,5.4255533E-1,-4.0785295E-1,1.5155613E0,2.886065E-1,1.8126796E0,6.054694E-1,3.3327603E0,1.6338364E0],"categories":[],"categories_nodes":[],"categories_segments":[],"categories_sizes":[],"default_left":[0,0,0,0,0,0,0,0,0,0,0,0,0,0,0,0,0,0,0,0,0,0,0,0,0,0,0,0,0,0,0,0,0,0,0,0,0,0,0,0,0,0,0,0,0,0,0,0,0,0,0,0,0,0,0,0,0,0,0,0,0,0,0,0,0,0,0,0,0,0,0,0,0,0,0,0,0,0,0,0,0,0,0,0,0,0,0,0,0,0,0,0,0,0,0,0,0],"id":6,"left_children":[1,3,5,7,9,11,13,15,17,19,21,23,25,27,29,31,33,35,37,39,41,43,45,47,49,51,53,55,57,-1,-1,59,61,63,65,-1,67,69,71,73,75,77,-1,79,81,83,85,-1,87,89,91,-1,-1,-1,-1,-1,-1,93,95,-1,-1,-1,-1,-1,-1,-1,-1,-1,-1,-1,-1,-1,-1,-1,-1,-1,-1,-1,-1,-1,-1,-1,-1,-1,-1,-1,-1,-1,-1,-1,-1,-1,-1,-1,-1,-1,-1],"loss_changes":[4.9851793E4,8.6884375E3,7.601953E3,1.3890918E3,1.1503981E3,9.000669E2,6.5858203E2,1.0268652E2,1.9922461E2,5.485112E2,2.3820503E3,1.3007744E3,2.2402441E2,6.9035547E2,4.4125977E0,1.1785254E2,1.3306226E2,9.503589E1,3.355669E2,6.455022E2,1.5840732E2,2.1270786E2,5.508032E2,1.3919824E2,1.00208936E3,1.4124313E1,1.289209E1,9.775879E1,7.9372656E2,0E0,0E0,1.8048584E1,4.4251953E1,1.0888052E-1,6.195703E1,0E0,3.173938E1,2.5256934E2,5.2913147E1,1.3824386E3,5.5384973E2,6.428205E0,0E0,1.302974E2,3.5740967E0,3.769544E2,8.413154E2,0E0,1.4152783E2,9.4608405E2,2.2552998E3,0E0,0E0,0E0,0E0,0E0,0E0,3.7935742E2,5.4059766E2,0E0,0E0,0E0,0E0,0E0,0E0,0E0,0E0,0E0,0E0,0E0,0E0,0E0,0E0,0E0,0E0,0E0,0E0,0E0,0E0,0E0,0E0,0E0,0E0,0E0,0E0,0E0,0E0,0E0,0E0,0E0,0E0,0E0,0E0,0E0,0E0,0E0,0E0],"parents":[2147483647,0,0,1,1,2,2,3,3,4,4,5,5,6,6,7,7,8,8,9,9,10,10,11,11,12,12,13,13,14,14,15,15,16,16,17,17,18,18,19,19,20,20,21,21,22,22,23,23,24,24,25,25,26,26,27,27,28,28,31,31,32,32,33,33,34,34,36,36,37,37,38,38,39,39,40,40,41,41,43,43,44,44,45,45,46,46,48,48,49,49,50,50,57,57,58,58],"right_children":[2,4,6,8,10,12,14,16,18,20,22,24,26,28,30,32,34,36,38,40,42,44,46,48,50,52,54,56,58,-1,-1,60,62,64,66,-1,68,70,72,74,76,78,-1,80,82,84,86,-1,88,90,92,-1,-1,-1,-1,-1,-1,94,96,-1,-1,-1,-1,-1,-1,-1,-1,-1,-1,-1,-1,-1,-1,-1,-1,-1,-1,-1,-1,-1,-1,-1,-1,-1,-1,-1,-1,-1,-1,-1,-1,-1,-1,-1,-1,-1,-1],"split_conditions":[4.46E1,2.419E1,6.117E1,1.831E1,3.358E1,6.599E1,7.8E1,1.599E1,1.681E1,5.646E1,4.1E1,3.726E1,5.172E1,4.368E1,8.1E1,1.354E1,1.492E1,1.667E1,6.6E1,3E1,3.06E1,4.433E1,3.15E1,2.498E1,4.835E1,4.602E1,5E1,6.355E1,8.12E1,4.1151878E-1,9.072089E-1,3.24E1,1.881E1,3.19E1,3.726E1,1.107976E-1,9.7E1,4.2E1,2.275E1,2.077E1,2.956E1,2.77E1,1.1390475E0,5.573E1,3.71E1,7.4E1,3.271E1,1.0986328E-3,5.624E1,3.15E1,5.489E1,1.2760372E-1,7.1190256E-1,6.897537E-1,1.7402344E0,4.7931224E-1,1.2421645E0,7.897E1,7.225E1,-8.700938E-1,-6.058138E-1,-1.0006611E0,-3.0388978E-1,1.3416099E-2,7.344961E-2,-7.689588E-1,-2.676377E-1,-8.044543E-1,-1.0548363E-1,-3.8636968E-1,-6.354629E-1,-6.600268E-2,-3.669891E-1,7.0068544E-1,-1.358682E-1,-3.946476E-1,-6.403178E-2,1.0531108E-3,2.55122E-1,-1.3218968E-1,-4.8813388E-1,6.549688E-1,1.5830688E-1,1.3340719E-1,8.9125675E-1,1.3809297E0,3.1797954E-1,1.3501235E0,7.189185E-1,5.4255533E-1,-4.0785295E-1,1.5155613E0,2.886065E-1,1.8126796E0,6.054694E-1,3.3327603E0,1.6338364E0],"split_indices":[2,2,2,2,2,4,1,2,4,4,1,4,3,4,1,4,3,3,1,1,0,2,0,4,4,2,1,2,2,0,0,0,3,0,4,0,1,1,3,4,2,0,0,4,0,1,4,0,2,0,4,0,0,0,0,0,0,2,4,0,0,0,0,0,0,0,0,0,0,0,0,0,0,0,0,0,0,0,0,0,0,0,0,0,0,0,0,0,0,0,0,0,0,0,0,0,0],"split_type":[0,0,0,0,0,0,0,0,0,0,0,0,0,0,0,0,0,0,0,0,0,0,0,0,0,0,0,0,0,0,0,0,0,0,0,0,0,0,0,0,0,0,0,0,0,0,0,0,0,0,0,0,0,0,0,0,0,0,0,0,0,0,0,0,0,0,0,0,0,0,0,0,0,0,0,0,0,0,0,0,0,0,0,0,0,0,0,0,0,0,0,0,0,0,0,0,0],"sum_hessian":[1.277E3,9.92E2,2.85E2,4.37E2,5.55E2,1.6E2,1.25E2,2E2,2.37E2,3.91E2,1.64E2,1.43E2,1.7E1,1.16E2,9E0,1.33E2,6.7E1,2.8E1,2.09E2,3.85E2,6E0,9.9E1,6.5E1,3.3E1,1.1E2,5E0,1.2E1,1.6E1,1E2,3E0,6E0,4E1,9.3E1,2E0,6.5E1,1E0,2.7E1,1.78E2,3.1E1,1.61E2,2.24E2,3E0,3E0,9.6E1,3E0,3.4E1,3.1E1,1E0,3.2E1,4E1,7E1,1E0,4E0,2E0,1E1,4E0,1.2E1,8.5E1,1.5E1,1.5E1,2.5E1,9.1E1,2E0,1E0,1E0,6.1E1,4E0,2.6E1,1E0,9.5E1,8.3E1,2.4E1,7E0,2.2E1,1.39E2,1.46E2,7.8E1,2E0,1E0,8.5E1,1.1E1,2E0,1E0,2.6E1,8E0,1.7E1,1.4E1,2.3E1,9E0,1.9E1,2.1E1,2.1E1,4.9E1,8.1E1,4E0,8E0,7E0],"tree_param":{"num_deleted":"0","num_feature":"5","num_nodes":"97","size_leaf_vector":"1"}},{"base_weights":[1.02008685E-1,-2.9960315E0,1.0390088E1,-5.936629E0,-6.316037E-1,6.278224E0,1.5888014E1,-7.5972366E0,-4.330821E0,-1.5791997E0,9.523448E-1,5.793625E0,1.5427734E1,1.2637161E1,1.779262E1,-6.2755184E0,-8.355008E0,-4.657182E0,-1.8683091E0,1.3636996E-1,-2.6318433E0,-1.4334958E0,4.937034E0,9.905545E0,4.642003E0,1.7285346E0,1.2122345E-1,1.1020667E1,1.7366488E1,1.9418768E1,1.3130408E1,-6.5910726E0,-2.5327556E0,-8.589173E0,-6.425594E-1,-3.4937348E0,-5.696345E0,-3.52314E0,6.317272E-1,5.8411765E0,-1.2642088E0,-3.9223473E0,-2.2222476E-1,-1.1962539E-1,-2.9902976E0,3.9493642E0,1.2962017E1,1.0437012E-3,1.0196271E1,1.1885027E0,6.456344E0,1.2397783E1,6.7742476E0,1.84458E1,3.2866785E-1,1.3777276E1,2.2013521E1,5.972466E0,1.6549814E1,-6.8272793E-1,-2.7368182E-1,-3.195314E-1,1.05257705E-1,-5.3757554E-1,-9.1996354E-1,-1.48592E-1,1.3654414E-1,-6.9912605E-2,-4.7534186E-1,-7.725856E-1,-3.9229527E-1,-1.0068264E-1,-3.791527E-1,-1.21304706E-1,1.7057453E-1,2.8282738E0,4.753139E-2,-6.2240567E-2,-3.992842E-1,-3.177584E-1,-6.1957574E-1,5.1142197E-2,-5.042071E-1,1.8580904E0,-6.522173E-2,-3.591062E-1,2.914967E-1,-2.972822E-1,4.6447697E-1,1.4862982E0,-1.723652E-2,1.0492891E0,2.0388985E-2,3.370805E-1,-7.004866E-1,1.3033551E0,3.9526603E-1,1.3892218E0,7.533239E-1,7.412737E-1,-1.2456703E-2,5.12866E-1,1.9355633E0,1.4987606E0,7.148764E-1,1.8421535E0,3.0742643E0,2.5379023E-1,1.1995625E0,7.6524794E-1,1.813644E0],"categories":[],"categories_nodes":[],"categories_segments":[],"categories_sizes":[],"default_left":[0,0,0,0,0,0,0,0,0,0,0,0,0,0,0,0,0,0,0,0,0,0,0,0,0,0,0,0,0,0,0,0,0,0,0,0,0,0,0,0,0,0,0,0,0,0,0,0,0,0,0,0,0,0,0,0,0,0,0,0,0,0,0,0,0,0,0,0,0,0,0,0,0,0,0,0,0,0,0,0,0,0,0,0,0,0,0,0,0,0,0,0,0,0,0,0,0,0,0,0,0,0,0,0,0,0,0,0,0,0,0],"id":7,"left_children":[1,3,5,7,9,11,13,15,17,19,21,23,25,27,29,31,33,35,37,39,41,43,45,47,49,-1,-1,51,53,55,57,59,61,63,65,67,69,71,73,75,77,79,81,83,85,87,89,-1,91,93,95,97,99,101,-1,103,105,107,109,-1,-1,-1,-1,-1,-1,-1,-1,-1,-1,-1,-1,-1,-1,-1,-1,-1,-1,-1,-1,-1,-1,-1,-1,-1,-1,-1,-1,-1,-1,-1,-1,-1,-1,-1,-1,-1,-1,-1,-1,-1,-1,-1,-1,-1,-1,-1,-1,-1,-1,-1,-1],"loss_changes":[4.076467E4,6.830883E3,6.591842E3,1.1350762E3,8.210189E2,6.6880566E2,5.5529297E2,1.6190137E2,1.72125E2,6.1797095E2,1.9559781E3,7.306206E2,1.903009E2,1.9085596E2,3.2879688E2,8.01521E1,2.3467676E2,2.1948242E2,1.1806552E2,1.0540785E3,6.583684E2,2.6350348E2,5.591129E2,1.0058032E2,8.068843E2,0E0,0E0,1.4992676E2,1.0653662E2,5.018164E2,4.6410278E2,4.9594727E1,2.2367256E1,2.0360059E2,1.049628E1,3.346277E2,3.4040112E2,7.663437E0,2.5844997E1,3.1174336E3,1.8314684E2,2.1396729E2,2.6778345E2,7.1926105E2,2.1978058E2,3.507688E2,2.0230579E2,0E0,9.8634766E1,8.461107E2,1.3481987E3,1.0616943E2,5.378119E1,2.1894775E1,0E0,5.3311035E1,5.624492E2,1.5573859E2,7.296289E1,0E0,0E0,0E0,0E0,0E0,0E0,0E0,0E0,0E0,0E0,0E0,0E0,0E0,0E0,0E0,0E0,0E0,0E0,0E0,0E0,0E0,0E0,0E0,0E0,0E0,0E0,0E0,0E0,0E0,0E0,0E0,0E0,0E0,0E0,0E0,0E0,0E0,0E0,0E0,0E0,0E0,0E0,0E0,0E0,0E0,0E0,0E0,0E0,0E0,0E0,0E0,0E0],"parents":[2147483647,0,0,1,1,2,2,3,3,4,4,5,5,6,6,7,7,8,8,9,9,10,10,11,11,12,12,13,13,14,14,15,15,16,16,17,17,18,18,19,19,20,20,21,21,22,22,23,23,24,24,27,27,28,28,29,29,30,30,31,31,32,32,33,33,34,34,35,35,36,36,37,37,38,38,39,39,40,40,41,41,42,42,43,43,44,44,45,45,46,46,48,48,49,49,50,50,51,51,52,52,53,53,55,55,56,56,57,57,58,58],"right_children":[2,4,6,8,10,12,14,16,18,20,22,24,26,28,30,32,34,36,38,40,42,44,46,48,50,-1,-1,52,54,56,58,60,62,64,66,68,70,72,74,76,78,80,82,84,86,88,90,-1,92,94,96,98,100,102,-1,104,106,108,110,-1,-1,-1,-1,-1,-1,-1,-1,-1,-1,-1,-1,-1,-1,-1,-1,-1,-1,-1,-1,-1,-1,-1,-1,-1,-1,-1,-1,-1,-1,-1,-1,-1,-1,-1,-1,-1,-1,-1,-1,-1,-1,-1,-1,-1,-1,-1,-1,-1,-1,-1,-1],"split_conditions":[4.356E1,2.419E1,6.117E1,1.864E1,3.189E1,7.897E1,6.648E1,3.27E1,4.368E1,3E1,4E1,3.682E1,2.83E1,6.969E1,7.152E1,1.831E1,2.027E1,4.2E1,5.5E1,3.47E1,2.823E1,3.71E1,3.59E1,2.498E1,4.835E1,1.7285346E0,1.2122345E-1,3.12E1,7.025E1,6.081E1,8.12E1,2.29E1,3.02E1,1.308E1,4.1E1,3.58E1,5.8E1,1.923E1,2.014E1,2.077E1,4.21E1,3.54E1,3.158E1,2.077E1,5.238E1,2.259E1,2.801E1,1.0437012E-3,3.46E1,6.5E1,5.489E1,7.4E1,5.3E1,6.047E1,3.2866785E-1,8.416E1,7.897E1,8.416E1,2.75E1,-6.8272793E-1,-2.7368182E-1,-3.195314E-1,1.05257705E-1,-5.3757554E-1,-9.1996354E-1,-1.48592E-1,1.3654414E-1,-6.9912605E-2,-4.7534186E-1,-7.725856E-1,-3.9229527E-1,-1.0068264E-1,-3.791527E-1,-1.21304706E-1,1.7057453E-1,2.8282738E0,4.753139E-2,-6.2240567E-2,-3.992842E-1,-3.177584E-1,-6.1957574E-1,5.1142197E-2,-5.042071E-1,1.8580904E0,-6.522173E-2,-3.591062E-1,2.914967E-1,-2.972822E-1,4.6447697E-1,1.4862982E0,-1.723652E-2,1.0492891E0,2.0388985E-2,3.370805E-1,-7.004866E-1,1.3033551E0,3.9526603E-1,1.3892218E0,7.533239E-1,7.412737E-1,-1.2456703E-2,5.12866E-1,1.9355633E0,1.4987606E0,7.148764E-1,1.8421535E0,3.0742643E0,2.5379023E-1,1.1995625E0,7.6524794E-1,1.813644E0],"split_indices":[2,2,2,2,3,4,3,0,4,1,1,4,0,4,4,2,3,1,1,0,4,0,0,4,4,0,0,0,2,4,4,4,0,4,1,0,1,3,2,4,0,0,3,4,4,4,4,0,0,1,4,1,1,3,0,2,2,3,0,0,0,0,0,0,0,0,0,0,0,0,0,0,0,0,0,0,0,0,0,0,0,0,0,0,0,0,0,0,0,0,0,0,0,0,0,0,0,0,0,0,0,0,0,0,0,0,0,0,0,0,0],"split_type":[0,0,0,0,0,0,0,0,0,0,0,0,0,0,0,0,0,0,0,0,0,0,0,0,0,0,0,0,0,0,0,0,0,0,0,0,0,0,0,0,0,0,0,0,0,0,0,0,0,0,0,0,0,0,0,0,0,0,0,0,0,0,0,0,0,0,0,0,0,0,0,0,0,0,0,0,0,0,0,0,0,0,0,0,0,0,0,0,0,0,0,0,0,0,0,0,0,0,0,0,0,0,0,0,0,0,0,0,0,0,0],"sum_hessian":[1.277E3,9.82E2,2.95E2,4.37E2,5.45E2,1.7E2,1.25E2,2.13E2,2.24E2,3.41E2,2.04E2,1.63E2,7E0,4.9E1,7.6E1,8.1E1,1.32E2,1.97E2,2.7E1,1.3E2,2.11E2,1.28E2,7.6E1,3.4E1,1.29E2,6E0,1E0,3.9E1,1E1,5.4E1,2.2E1,7.4E1,7E0,1.28E2,4E0,9.5E1,1.02E2,1.6E1,1.1E1,2.5E1,1.05E2,1.37E2,7.4E1,7E1,5.8E1,6.9E1,7E0,1E0,3.3E1,4.5E1,8.4E1,2.8E1,1.1E1,9E0,1E0,1.9E1,3.5E1,8E0,1.4E1,6.9E1,5E0,6E0,1E0,2.2E1,1.06E2,3E0,1E0,3E1,6.5E1,4.6E1,5.6E1,2E0,1.4E1,4E0,7E0,4E0,2.1E1,8.6E1,1.9E1,1.05E2,3.2E1,6.5E1,9E0,1E0,6.9E1,5.3E1,5E0,6E0,6.3E1,6E0,1E0,3.2E1,1E0,3.6E1,9E0,2.2E1,6.2E1,2E1,8E0,1E1,1E0,1E0,8E0,1.5E1,4E0,2.7E1,8E0,6E0,2E0,3E0,1.1E1],"tree_param":{"num_deleted":"0","num_feature":"5","num_nodes":"111","size_leaf_vector":"1"}},{"base_weights":[1.0798204E-1,-2.6382504E0,9.6426E0,-5.547153E0,-6.335919E-1,5.833987E0,1.44326315E1,-6.8498507E0,-4.066296E0,-1.3974252E0,1.3376973E0,4.915107E0,1.1133571E1,1.1486415E1,1.6158323E1,-5.6622434E0,-7.530557E0,-4.442865E0,-1.6004927E0,-1.521312E0,5.2503395E0,-1.2349064E0,5.215314E0,9.626301E0,3.3576002E0,2.3026823E-1,1.1864956E1,9.990385E0,1.5882303E1,1.760653E1,1.1992682E1,-7.021687E0,-4.742916E0,-7.7415543E0,-5.807129E-1,-2.37681E0,-5.1915894E0,-3.130327E0,5.7266074E-1,-2.3979107E-1,-2.2679574E0,9.274834E0,-1.0928626E0,-1.8958035E0,1.5034715E0,2.6659427E0,7.8407097E0,1.0852651E1,5.5977983E0,4.6486325E0,-3.21237E0,9.2358583E-1,1.5803744E0,1.1622303E1,6.8161154E0,1.6846064E1,3.122345E-1,1.188312E1,1.96499E1,5.536702E0,1.5066758E1,-5.84765E-1,-8.393275E-1,-5.0707006E-1,-2.306265E-1,-4.8615533E-1,-8.288269E-1,-1.374476E-1,1.2971698E-1,-2.8489408E-1,6.606244E-2,-5.8134407E-1,-3.198684E-1,-9.3970425E-2,-3.3761513E-1,-3.7481096E-2,2.561307E-1,5.297514E-1,-1.3969031E-1,-3.0996618E-1,-4.1689552E-2,2.3980866E-1,1.0394499E0,-2.4266562E-3,-2.1493255E-1,-1.0421478E-2,-2.6483282E-1,9.699861E-1,-3.656112E-1,8.866953E-2,7.707469E-1,1.1806853E0,2.5586244E-1,-3.6361825E-2,1.1843787E0,2.0313683E-1,6.836073E-1,1.54761E-1,8.769804E-1,1.9558673E-1,-8.5979265E-1,1.2319509E0,2.4029644E-1,7.365774E-1,1.979004E-1,1.126619E0,2.239933E0,1.3009902E0,6.576862E-1,1.6588919E0,2.8009963E0,2.3203664E-1,1.1195918E0,7.078544E-1,1.6473932E0],"categories":[],"categories_nodes":[],"categories_segments":[],"categories_sizes":[],"default_left":[0,0,0,0,0,0,0,0,0,0,0,0,0,0,0,0,0,0,0,0,0,0,0,0,0,0,0,0,0,0,0,0,0,0,0,0,0,0,0,0,0,0,0,0,0,0,0,0,0,0,0,0,0,0,0,0,0,0,0,0,0,0,0,0,0,0,0,0,0,0,0,0,0,0,0,0,0,0,0,0,0,0,0,0,0,0,0,0,0,0,0,0,0,0,0,0,0,0,0,0,0,0,0,0,0,0,0,0,0,0,0,0,0,0,0],"id":8,"left_children":[1,3,5,7,9,11,13,15,17,19,21,23,25,27,29,31,33,35,37,39,41,43,45,47,49,-1,51,53,55,57,59,61,63,65,67,69,71,73,75,77,79,81,83,85,87,89,91,93,95,97,99,-1,-1,101,103,105,-1,107,109,111,113,-1,-1,-1,-1,-1,-1,-1,-1,-1,-1,-1,-1,-1,-1,-1,-1,-1,-1,-1,-1,-1,-1,-1,-1,-1,-1,-1,-1,-1,-1,-1,-1,-1,-1,-1,-1,-1,-1,-1,-1,-1,-1,-1,-1,-1,-1,-1,-1,-1,-1,-1,-1,-1,-1],"loss_changes":[3.3488945E4,5.787021E3,5.1334043E3,7.5343555E2,8.887479E2,7.292959E2,4.5501562E2,1.3036133E2,1.7116992E2,3.5800488E2,1.6524095E3,9.876216E2,1.2123096E2,1.7014844E2,2.5336719E2,6.917798E1,1.9053516E2,2.4444702E2,9.155587E1,3.9941608E2,2.1436157E2,1.8382884E2,4.208423E2,1.0722119E2,9.140298E2,0E0,7.1503174E1,1.2798682E2,8.267407E1,4.0972656E2,3.7304175E2,8.383789E-1,2.983789E1,1.6282178E2,9.235898E0,6.784912E1,1.3135913E2,5.4435425E0,2.3570238E1,1.00052893E3,4.051454E2,1.3571381E1,4.46357E0,1.0892941E2,8.812628E2,3.0712012E2,6.401748E2,2.8222827E2,3.0275604E1,1.1238337E3,5.178253E2,0E0,0E0,1.3109082E2,2.7963196E1,5.751001E1,0E0,1.6078857E1,5.3335547E2,1.378388E2,5.2000732E1,0E0,0E0,0E0,0E0,0E0,0E0,0E0,0E0,0E0,0E0,0E0,0E0,0E0,0E0,0E0,0E0,0E0,0E0,0E0,0E0,0E0,0E0,0E0,0E0,0E0,0E0,0E0,0E0,0E0,0E0,0E0,0E0,0E0,0E0,0E0,0E0,0E0,0E0,0E0,0E0,0E0,0E0,0E0,0E0,0E0,0E0,0E0,0E0,0E0,0E0,0E0,0E0,0E0,0E0],"parents":[2147483647,0,0,1,1,2,2,3,3,4,4,5,5,6,6,7,7,8,8,9,9,10,10,11,11,12,12,13,13,14,14,15,15,16,16,17,17,18,18,19,19,20,20,21,21,22,22,23,23,24,24,26,26,27,27,28,28,29,29,30,30,31,31,32,32,33,33,34,34,35,35,36,36,37,37,38,38,39,39,40,40,41,41,42,42,43,43,44,44,45,45,46,46,47,47,48,48,49,49,50,50,53,53,54,54,55,55,57,57,58,58,59,59,60,60],"right_children":[2,4,6,8,10,12,14,16,18,20,22,24,26,28,30,32,34,36,38,40,42,44,46,48,50,-1,52,54,56,58,60,62,64,66,68,70,72,74,76,78,80,82,84,86,88,90,92,94,96,98,100,-1,-1,102,104,106,-1,108,110,112,114,-1,-1,-1,-1,-1,-1,-1,-1,-1,-1,-1,-1,-1,-1,-1,-1,-1,-1,-1,-1,-1,-1,-1,-1,-1,-1,-1,-1,-1,-1,-1,-1,-1,-1,-1,-1,-1,-1,-1,-1,-1,-1,-1,-1,-1,-1,-1,-1,-1,-1,-1,-1,-1,-1],"split_conditions":[4.46E1,2.349E1,6.117E1,1.864E1,3.358E1,6.495E1,6.648E1,3.27E1,4.368E1,5.646E1,4.1E1,3.726E1,4.624E1,6.969E1,7.152E1,1.522E1,2.027E1,2.9E1,5.5E1,2.8E1,5E1,5.238E1,3.15E1,5.624E1,7E1,2.3026823E-1,7.678E1,3.05E1,7.025E1,5.835E1,8.12E1,1.406E1,1.831E1,1.308E1,4.1E1,4.28E1,6.4E1,1.923E1,7.1E1,3.5E1,2.956E1,3.06E1,2.77E1,2.77E1,5.646E1,7.4E1,3.271E1,2.672E1,5.766E1,5.2E1,2.61E1,9.2358583E-1,1.5803744E0,6.891E1,6.175E1,3.22E1,3.122345E-1,8.416E1,7.897E1,8.416E1,2.75E1,-5.84765E-1,-8.393275E-1,-5.0707006E-1,-2.306265E-1,-4.8615533E-1,-8.288269E-1,-1.374476E-1,1.2971698E-1,-2.8489408E-1,6.606244E-2,-5.8134407E-1,-3.198684E-1,-9.3970425E-2,-3.3761513E-1,-3.7481096E-2,2.561307E-1,5.297514E-1,-1.3969031E-1,-3.0996618E-1,-4.1689552E-2,2.3980866E-1,1.0394499E0,-2.4266562E-3,-2.1493255E-1,-1.0421478E-2,-2.6483282E-1,9.699861E-1,-3.656112E-1,8.866953E-2,7.707469E-1,1.1806853E0,2.5586244E-1,-3.6361825E-2,1.1843787E0,2.0313683E-1,6.836073E-1,1.54761E-1,8.769804E-1,1.9558673E-1,-8.5979265E-1,1.2319509E0,2.4029644E-1,7.365774E-1,1.979004E-1,1.126619E0,2.239933E0,1.3009902E0,6.576862E-1,1.6588919E0,2.8009963E0,2.3203664E-1,1.1195918E0,7.078544E-1,1.6473932E0],"split_indices":[2,2,2,2,2,4,3,0,4,4,1,4,3,4,4,2,3,1,1,1,1,4,0,2,1,0,4,0,2,4,4,3,2,4,1,0,1,3,1,0,2,0,0,4,4,1,4,4,2,1,0,0,0,2,4,0,0,2,2,3,0,0,0,0,0,0,0,0,0,0,0,0,0,0,0,0,0,0,0,0,0,0,0,0,0,0,0,0,0,0,0,0,0,0,0,0,0,0,0,0,0,0,0,0,0,0,0,0,0,0,0,0,0,0,0],"split_type":[0,0,0,0,0,0,0,0,0,0,0,0,0,0,0,0,0,0,0,0,0,0,0,0,0,0,0,0,0,0,0,0,0,0,0,0,0,0,0,0,0,0,0,0,0,0,0,0,0,0,0,0,0,0,0,0,0,0,0,0,0,0,0,0,0,0,0,0,0,0,0,0,0,0,0,0,0,0,0,0,0,0,0,0,0,0,0,0,0,0,0,0,0,0,0,0,0,0,0,0,0,0,0,0,0,0,0,0,0,0,0,0,0,0,0],"sum_hessian":[1.277E3,9.92E2,2.85E2,4.04E2,5.88E2,1.6E2,1.25E2,2.13E2,1.91E2,4.24E2,1.64E2,1.38E2,2.2E1,4.9E1,7.6E1,8.1E1,1.32E2,1.65E2,2.6E1,4.17E2,7E0,9.9E1,6.5E1,3.3E1,1.05E2,2E0,2E1,3.9E1,1E1,5.4E1,2.2E1,3E1,5.1E1,1.28E2,4E0,4.5E1,1.2E2,1.5E1,1.1E1,1.54E2,2.63E2,4E0,3E0,8E1,1.9E1,3.4E1,3.1E1,2.4E1,9E0,8.8E1,1.7E1,1.4E1,6E0,2.4E1,1.5E1,9E0,1E0,1.6E1,3.8E1,8E0,1.4E1,1.9E1,1.1E1,4.4E1,7E0,2.2E1,1.06E2,3E0,1E0,3.9E1,6E0,9E1,3E1,2E0,1.3E1,8E0,3E0,2.6E1,1.28E2,1.81E2,8.2E1,1E0,3E0,2E0,1E0,2.4E1,5.6E1,7E0,1.2E1,2.6E1,8E0,1.7E1,1.4E1,2E0,2.2E1,3E0,6E0,5.1E1,3.7E1,9E0,8E0,2.2E1,2E0,1.3E1,2E0,6E0,3E0,1.2E1,4E0,3E1,8E0,6E0,2E0,3E0,1.1E1],"tree_param":{"num_deleted":"0","num_feature":"5","num_nodes":"115","size_leaf_vector":"1"}},{"base_weights":[1.13033265E-1,-2.3755248E0,8.752981E0,-4.835766E0,-4.3314856E-1,5.282492E0,1.3118027E1,-6.181148E0,-3.5346656E0,-1.1278157E0,1.2198373E0,7.132064E0,3.1200497E0,1.3666385E1,5.3904333E0,-8.43843E-1,-5.851605E0,-6.135038E0,-3.2369065E0,-1.2566109E0,6.135437E0,-1.263139E0,4.5249486E0,1.1003277E1,3.685668E0,3.6573248E0,-1.1172752E0,7.8566036E0,1.4443739E1,1.9386502E-1,6.592819E-1,-8.6807406E-1,-5.9541106E0,-7.82916E-1,-3.729174E0,-3.4599361E0,3.060633E-1,5.2298527E-2,-2.0356822E0,1.1221046E0,9.6149105E-1,-1.520413E0,4.9699497E0,2.2207904E0,6.831489E0,5.2132983E0,1.5503564E1,8.401874E0,-1.18997924E-1,7.2019625E0,1.8118596E0,8.9405483E-1,2.3696338E-1,1.3165551E1,2.049115E1,-3.7965775E-4,-1.08319424E-1,-4.9372625E-1,-6.6271394E-1,2.6347352E-2,-4.1547862E-1,-3.594278E-1,6.03999E-2,-8.628561E-2,2.3489057E-1,5.99E-1,-1.1749315E-1,-2.884071E-1,-3.757078E-2,-2.264913E-3,2.278183E-1,-1.14605285E-1,-4.1728792E-1,5.648073E-1,1.4677906E-1,6.540694E-2,7.0223594E-1,1.069176E0,2.5916913E-1,4.3426942E-2,1.1730179E0,1.814065E0,9.6788114E-1,1.222282E0,3.8171202E-1,-2.662934E-1,1.1606909E0,1.1572038E0,5.880448E-2,3.5017082E-1,-4.4977584E-1,1.4374474E0,9.1766167E-1,2.553782E0,1.2252253E0],"categories":[],"categories_nodes":[],"categories_segments":[],"categories_sizes":[],"default_left":[0,0,0,0,0,0,0,0,0,0,0,0,0,0,0,0,0,0,0,0,0,0,0,0,0,0,0,0,0,0,0,0,0,0,0,0,0,0,0,0,0,0,0,0,0,0,0,0,0,0,0,0,0,0,0,0,0,0,0,0,0,0,0,0,0,0,0,0,0,0,0,0,0,0,0,0,0,0,0,0,0,0,0,0,0,0,0,0,0,0,0,0,0,0,0],"id":9,"left_children":[1,3,5,7,9,11,13,15,17,19,21,23,25,27,29,-1,31,33,35,37,39,41,43,45,47,49,-1,51,53,-1,-1,55,57,-1,59,61,63,65,67,69,-1,71,73,75,77,79,81,83,85,87,89,-1,-1,91,93,-1,-1,-1,-1,-1,-1,-1,-1,-1,-1,-1,-1,-1,-1,-1,-1,-1,-1,-1,-1,-1,-1,-1,-1,-1,-1,-1,-1,-1,-1,-1,-1,-1,-1,-1,-1,-1,-1,-1,-1],"loss_changes":[2.7499084E4,4.7431685E3,4.2632715E3,7.448613E2,6.3981665E2,6.216821E2,4.602578E2,1.0980957E2,1.5435547E2,3.7441495E2,1.3597903E3,1.106834E3,6.244791E2,4.1492383E2,2.8722565E1,0E0,9.18916E1,6.0471924E1,1.6225732E2,3.937237E2,1.1131735E2,1.5989952E2,3.6216785E2,9.614385E2,8.443483E2,4.7102234E2,0E0,7.397534E1,5.1865234E2,0E0,0E0,9.2550516E-1,9.457178E1,0E0,1.97872E1,1.0699463E2,3.3069702E1,1.063642E3,3.397259E2,5.3452997E0,0E0,8.657164E1,1.2093887E0,2.7374747E2,5.451271E2,5.866488E2,1.6234814E2,3.2122424E2,8.363173E2,7.157782E2,5.4886475E2,0E0,0E0,2.876328E2,3.5236816E2,0E0,0E0,0E0,0E0,0E0,0E0,0E0,0E0,0E0,0E0,0E0,0E0,0E0,0E0,0E0,0E0,0E0,0E0,0E0,0E0,0E0,0E0,0E0,0E0,0E0,0E0,0E0,0E0,0E0,0E0,0E0,0E0,0E0,0E0,0E0,0E0,0E0,0E0,0E0,0E0],"parents":[2147483647,0,0,1,1,2,2,3,3,4,4,5,5,6,6,7,7,8,8,9,9,10,10,11,11,12,12,13,13,14,14,16,16,17,17,18,18,19,19,20,20,21,21,22,22,23,23,24,24,25,25,27,27,28,28,31,31,32,32,34,34,35,35,36,36,37,37,38,38,39,39,41,41,42,42,43,43,44,44,45,45,46,46,47,47,48,48,49,49,50,50,53,53,54,54],"right_children":[2,4,6,8,10,12,14,16,18,20,22,24,26,28,30,-1,32,34,36,38,40,42,44,46,48,50,-1,52,54,-1,-1,56,58,-1,60,62,64,66,68,70,-1,72,74,76,78,80,82,84,86,88,90,-1,-1,92,94,-1,-1,-1,-1,-1,-1,-1,-1,-1,-1,-1,-1,-1,-1,-1,-1,-1,-1,-1,-1,-1,-1,-1,-1,-1,-1,-1,-1,-1,-1,-1,-1,-1,-1,-1,-1,-1,-1,-1,-1],"split_conditions":[4.46E1,2.419E1,6.117E1,1.864E1,3.358E1,3.04E1,7.8E1,1.168E1,1.618E1,5.646E1,3.9E1,6.6E1,5.8E1,4.328E1,8.1E1,-8.43843E-1,1.3E1,1.993E1,7.2E1,2.8E1,3.06E1,4.433E1,3.15E1,5.431E1,5.387E1,3.6E1,-1.1172752E0,3.08E1,8.12E1,1.9386502E-1,6.592819E-1,4.04E1,3.27E1,-7.82916E-1,2.058E1,4.28E1,2.101E1,3.5E1,2.956E1,2.77E1,9.6149105E-1,5.489E1,3.71E1,7.4E1,3.271E1,5.7E1,5.877E1,5.392E1,5.798E1,3.84E1,5.849E1,8.9405483E-1,2.3696338E-1,7.169E1,7.225E1,-3.7965775E-4,-1.08319424E-1,-4.9372625E-1,-6.6271394E-1,2.6347352E-2,-4.1547862E-1,-3.594278E-1,6.03999E-2,-8.628561E-2,2.3489057E-1,5.99E-1,-1.1749315E-1,-2.884071E-1,-3.757078E-2,-2.264913E-3,2.278183E-1,-1.14605285E-1,-4.1728792E-1,5.648073E-1,1.4677906E-1,6.540694E-2,7.0223594E-1,1.069176E0,2.5916913E-1,4.3426942E-2,1.1730179E0,1.814065E0,9.6788114E-1,1.222282E0,3.8171202E-1,-2.662934E-1,1.1606909E0,1.1572038E0,5.880448E-2,3.5017082E-1,-4.4977584E-1,1.4374474E0,9.1766167E-1,2.553782E0,1.2252253E0],"split_indices":[2,2,2,2,2,0,1,2,4,4,1,1,1,4,1,0,1,3,1,1,0,2,0,3,3,1,0,0,2,0,0,0,0,0,3,0,4,0,2,0,0,4,0,1,4,1,4,4,4,0,3,0,0,2,4,0,0,0,0,0,0,0,0,0,0,0,0,0,0,0,0,0,0,0,0,0,0,0,0,0,0,0,0,0,0,0,0,0,0,0,0,0,0,0,0],"split_type":[0,0,0,0,0,0,0,0,0,0,0,0,0,0,0,0,0,0,0,0,0,0,0,0,0,0,0,0,0,0,0,0,0,0,0,0,0,0,0,0,0,0,0,0,0,0,0,0,0,0,0,0,0,0,0,0,0,0,0,0,0,0,0,0,0,0,0,0,0,0,0,0,0,0,0,0,0,0,0,0,0,0,0,0,0,0,0,0,0,0,0,0,0,0,0],"sum_hessian":[1.277E3,9.92E2,2.85E2,4.37E2,5.55E2,1.6E2,1.25E2,2.13E2,2.24E2,3.91E2,1.64E2,8.5E1,7.5E1,1.16E2,9E0,2.4E1,1.89E2,2.1E1,2.03E2,3.85E2,6E0,9.4E1,7E1,3.9E1,4.6E1,7.3E1,2E0,1.5E1,1.01E2,3E0,6E0,4E0,1.85E2,1.1E1,1E1,1.91E2,1.2E1,1.44E2,2.41E2,3E0,3E0,9.1E1,3E0,3.6E1,3.4E1,1.8E1,2.1E1,2E1,2.6E1,2.4E1,4.9E1,1.2E1,3E0,8.6E1,1.5E1,1E0,3E0,7.7E1,1.08E2,1E0,9E0,1.85E2,6E0,8E0,4E0,2.4E1,1.2E2,1.59E2,8.2E1,2E0,1E0,8.1E1,1E1,2E0,1E0,2.8E1,8E0,1.7E1,1.7E1,1.1E1,7E0,1.3E1,8E0,1E1,1E1,2.2E1,4E0,1.4E1,1E1,3.9E1,1E1,6.4E1,2.2E1,8E0,7E0],"tree_param":{"num_deleted":"0","num_feature":"5","num_nodes":"95","size_leaf_vector":"1"}},{"base_weights":[1.1331136E-1,-1.8838298E0,8.985235E0,-4.3600235E0,-9.395084E-2,6.6523776E0,1.3507684E1,-5.5728884E0,-3.1870763E0,-1.0158423E0,1.5795465E0,5.4957967E0,1.2539292E1,1.042717E1,1.5383201E1,-6.136132E0,-4.5723014E0,-5.418023E0,-2.8937392E0,-6.9118366E0,-8.7500954E-1,-6.772475E-1,4.0620217E0,6.6840043E0,2.8534083E0,1.2852813E1,2.5073987E-1,1.4624634E0,1.1613252E1,5.896115E0,1.6372232E1,-4.1817865E0,-6.524518E0,1.6724993E-1,-4.751569E0,-5.607251E0,-4.3827344E-2,-3.310894E0,-5.871744E-1,-2.4123956E-2,-7.7155066E0,6.729342E0,-9.930863E-1,-1.4796027E0,2.5616183E0,6.1653643E0,1.9614087E0,1.24555025E1,4.0545363E0,-8.991858E-1,3.6505399E0,1.094773E1,1.9641294E0,3.887169E-1,-1.44973E-1,1.1963956E1,8.96759E-2,1.1660259E0,9.8979E-2,5.594775E-1,1.7057812E1,-4.754954E-1,-1.5742646E-1,-6.701825E-1,-2.9581684E-1,-6.457059E-1,-4.1038796E-1,-4.1564092E-1,-6.515164E-1,-2.3329894E-1,-4.4344097E-1,3.3280947E-3,-2.4527006E-1,-1.9478703E-1,-8.2611877E-1,-4.8767727E-2,1.045977E0,1.834867E-2,-1.644811E-1,-5.4948676E-2,-2.5267234E-1,5.168822E-1,-4.1361076E-1,-2.595397E-1,7.174043E-1,-1.2227172E-1,4.848047E-1,3.4401456E-1,1.4265791E0,-5.7837414E-4,6.6574544E-1,4.59069E-1,-6.193523E-1,7.086977E-1,1.2371894E0,1.2983379E0,7.0509166E-1,-1.3958836E-1,1.06256105E-1,1.1631622E0,1.8297948E0],"categories":[],"categories_nodes":[],"categories_segments":[],"categories_sizes":[],"default_left":[0,0,0,0,0,0,0,0,0,0,0,0,0,0,0,0,0,0,0,0,0,0,0,0,0,0,0,0,0,0,0,0,0,0,0,0,0,0,0,0,0,0,0,0,0,0,0,0,0,0,0,0,0,0,0,0,0,0,0,0,0,0,0,0,0,0,0,0,0,0,0,0,0,0,0,0,0,0,0,0,0,0,0,0,0,0,0,0,0,0,0,0,0,0,0,0,0,0,0,0,0],"id":10,"left_children":[1,3,5,7,9,11,13,15,17,19,21,23,25,27,29,31,33,35,37,39,41,43,45,47,49,51,-1,53,55,57,59,61,63,-1,65,67,-1,69,71,-1,73,75,77,79,81,83,85,87,89,-1,91,93,-1,-1,-1,95,-1,-1,97,-1,99,-1,-1,-1,-1,-1,-1,-1,-1,-1,-1,-1,-1,-1,-1,-1,-1,-1,-1,-1,-1,-1,-1,-1,-1,-1,-1,-1,-1,-1,-1,-1,-1,-1,-1,-1,-1,-1,-1,-1,-1],"loss_changes":[2.266115E4,4.6266885E3,2.3894473E3,6.0534863E2,9.380738E2,1.0000513E3,2.9602246E2,9.254883E1,1.3156592E2,3.19449E2,1.212877E3,3.985088E2,4.6403076E1,3.3390112E2,3.4446973E2,7.4427734E1,9.862537E1,2.1100159E1,1.9145715E2,4.638733E1,3.514754E2,3.000443E2,4.4299304E2,1.3305122E3,4.388412E2,9.5355225E1,0E0,4.09414E1,9.826245E1,1.9933902E2,2.1489453E2,2.9878113E1,4.9731934E1,0E0,6.0766724E1,4.5339966E0,0E0,1.76432E2,3.7120853E1,0E0,9.086609E0,1.6663644E2,2.9091962E2,8.821442E1,4.230125E2,4.6929578E2,4.93073E2,4.0789453E2,6.7643384E2,0E0,4.0788336E2,2.7785889E1,0E0,0E0,0E0,4.8692627E1,0E0,0E0,7.244902E0,0E0,4.960547E1,0E0,0E0,0E0,0E0,0E0,0E0,0E0,0E0,0E0,0E0,0E0,0E0,0E0,0E0,0E0,0E0,0E0,0E0,0E0,0E0,0E0,0E0,0E0,0E0,0E0,0E0,0E0,0E0,0E0,0E0,0E0,0E0,0E0,0E0,0E0,0E0,0E0,0E0,0E0,0E0],"parents":[2147483647,0,0,1,1,2,2,3,3,4,4,5,5,6,6,7,7,8,8,9,9,10,10,11,11,12,12,13,13,14,14,15,15,16,16,17,17,18,18,19,19,20,20,21,21,22,22,23,23,24,24,25,25,27,27,28,28,29,29,30,30,31,31,32,32,34,34,35,35,37,37,38,38,40,40,41,41,42,42,43,43,44,44,45,45,46,46,47,47,48,48,50,50,51,51,55,55,58,58,60,60],"right_children":[2,4,6,8,10,12,14,16,18,20,22,24,26,28,30,32,34,36,38,40,42,44,46,48,50,52,-1,54,56,58,60,62,64,-1,66,68,-1,70,72,-1,74,76,78,80,82,84,86,88,90,-1,92,94,-1,-1,-1,96,-1,-1,98,-1,100,-1,-1,-1,-1,-1,-1,-1,-1,-1,-1,-1,-1,-1,-1,-1,-1,-1,-1,-1,-1,-1,-1,-1,-1,-1,-1,-1,-1,-1,-1,-1,-1,-1,-1,-1,-1,-1,-1,-1,-1],"split_conditions":[5.149E1,2.419E1,6.648E1,1.864E1,3.358E1,6.905E1,2.79E1,1.599E1,1.681E1,2.294E1,3.9E1,6.5E1,7.025E1,5.8E1,2.6E1,1.222E1,1.492E1,9.7E1,6.6E1,1.255E1,2.362E1,4.263E1,3.607E1,3.05E1,6.8E1,3.22E1,2.5073987E-1,5.6E1,7.8E1,7.342E1,3.112E1,3.76E1,6.9E1,1.6724993E-1,1.539E1,5.3E1,-4.3827344E-2,4.2E1,2.275E1,-2.4123956E-2,2.2E1,3.1E1,2.8E1,3.71E1,3.6E1,2.259E1,5.2E1,5.431E1,4.835E1,-8.991858E-1,2.86E1,5.4E1,1.9641294E0,3.887169E-1,-1.44973E-1,6.949E1,8.96759E-2,1.1660259E0,3.59E1,5.594775E-1,6.892E1,-4.754954E-1,-1.5742646E-1,-6.701825E-1,-2.9581684E-1,-6.457059E-1,-4.1038796E-1,-4.1564092E-1,-6.515164E-1,-2.3329894E-1,-4.4344097E-1,3.3280947E-3,-2.4527006E-1,-1.9478703E-1,-8.2611877E-1,-4.8767727E-2,1.045977E0,1.834867E-2,-1.644811E-1,-5.4948676E-2,-2.5267234E-1,5.168822E-1,-4.1361076E-1,-2.595397E-1,7.174043E-1,-1.2227172E-1,4.848047E-1,3.4401456E-1,1.4265791E0,-5.7837414E-4,6.6574544E-1,4.59069E-1,-6.193523E-1,7.086977E-1,1.2371894E0,1.2983379E0,7.0509166E-1,-1.3958836E-1,1.06256105E-1,1.1631622E0,1.8297948E0],"split_indices":[2,2,3,2,3,4,0,2,4,3,1,1,2,1,1,4,3,1,1,4,3,2,4,0,1,0,0,1,1,3,4,0,1,0,4,1,0,1,3,0,1,0,1,0,1,4,1,3,4,0,0,1,0,0,0,4,0,0,0,0,3,0,0,0,0,0,0,0,0,0,0,0,0,0,0,0,0,0,0,0,0,0,0,0,0,0,0,0,0,0,0,0,0,0,0,0,0,0,0,0,0],"split_type":[0,0,0,0,0,0,0,0,0,0,0,0,0,0,0,0,0,0,0,0,0,0,0,0,0,0,0,0,0,0,0,0,0,0,0,0,0,0,0,0,0,0,0,0,0,0,0,0,0,0,0,0,0,0,0,0,0,0,0,0,0,0,0,0,0,0,0,0,0,0,0,0,0,0,0,0,0,0,0,0,0,0,0,0,0,0,0,0,0,0,0,0,0,0,0,0,0,0,0,0,0],"sum_hessian":[1.277E3,1.043E3,2.34E2,4.37E2,6.06E2,1.56E2,7.8E1,2.13E2,2.24E2,3.91E2,2.15E2,1.32E2,2.4E1,3.2E1,4.6E1,1.33E2,8E1,2.4E1,2E2,8E0,3.83E2,1.13E2,1.02E2,9E1,4.2E1,2.3E1,1E0,4E0,2.8E1,5E0,4.1E1,2.4E1,1.09E2,2E0,7.8E1,2.3E1,1E0,1.69E2,3.1E1,1E0,7E0,5E0,3.78E2,9.1E1,2.2E1,5E1,5.2E1,2.7E1,6.3E1,2E0,4E1,2E1,3E0,2E0,2E0,2.7E1,1E0,2E0,3E0,3E0,3.8E1,1.9E1,5E0,1.03E2,6E0,1.9E1,5.9E1,1.1E1,1.2E1,9.2E1,7.7E1,2.4E1,7E0,1E0,6E0,2E0,3E0,1.35E2,2.43E2,4.9E1,4.2E1,1.6E1,6E0,5E0,4.5E1,2.5E1,2.7E1,5E0,2.2E1,2.5E1,3.8E1,3.7E1,3E0,7E0,1.3E1,2.1E1,6E0,1E0,2E0,9E0,2.9E1],"tree_param":{"num_deleted":"0","num_feature":"5","num_nodes":"101","size_leaf_vector":"1"}},{"base_weights":[1.0860286E-1,-1.6993697E0,8.140155E0,-3.9343345E0,-8.386057E-2,6.022408E0,1.2245801E1,-5.027224E0,-2.877389E0,-9.1475314E-1,1.4244438E0,4.956566E0,1.1451793E1,9.455267E0,1.3944564E1,-7.031689E-1,-4.73702E0,-3.1383927E0,-9.2895734E-1,-9.8646146E-1,8.712247E-1,-6.1131567E-1,3.663785E0,6.0423713E0,2.5434291E0,2.2657585E-1,1.1740137E1,1.3649658E0,1.0524102E1,5.4952855E0,1.481959E1,-4.849242E0,-1.1104548E0,-2.2363472E0,-3.9486642E0,-2.1986182E0,9.4714195E-1,3.927659E-2,-1.692659E0,-1.3349862E0,2.3099456E0,5.5578065E0,1.7721078E0,1.1273189E1,3.659477E0,8.386123E0,9.6835285E-1,1.2043445E1,2.3820285E-1,3.628024E-1,-1.3530807E-1,1.0839111E1,8.519211E-2,1.0882907E0,8.074856E-2,6.211449E-1,1.5562251E1,-4.5262098E-1,-7.576863E-1,-3.0093132E-2,-1.3740781E-1,2.8020158E-2,-3.3844784E-1,-5.7051444E-1,-2.5947675E-1,-1.2520461E-1,-3.1070063E-1,-5.330757E-2,1.7538853E-1,6.01867E-1,-9.575736E-2,-2.7440417E-1,-7.4330433E-3,-1.0113638E-1,-4.2071316E-1,4.682343E-1,-3.7815833E-1,3.127402E-1,9.168563E-1,-1.1051475E-1,4.3805552E-1,3.153468E-1,1.2901238E0,-5.2264286E-4,6.00878E-1,1.0343298E0,-3.6356354E-1,-2.493286E-1,6.338903E-1,1.0216322E0,1.8168198E0,1.1109352E0,1.771309E-1,-1.32609E-1,9.9172466E-2,1.7037472E0,1.0392393E0],"categories":[],"categories_nodes":[],"categories_segments":[],"categories_sizes":[],"default_left":[0,0,0,0,0,0,0,0,0,0,0,0,0,0,0,0,0,0,0,0,0,0,0,0,0,0,0,0,0,0,0,0,0,0,0,0,0,0,0,0,0,0,0,0,0,0,0,0,0,0,0,0,0,0,0,0,0,0,0,0,0,0,0,0,0,0,0,0,0,0,0,0,0,0,0,0,0,0,0,0,0,0,0,0,0,0,0,0,0,0,0,0,0,0,0,0,0],"id":11,"left_children":[1,3,5,7,9,11,13,15,17,19,21,23,25,27,29,-1,31,33,35,37,-1,39,41,43,45,-1,47,49,51,53,55,57,59,61,63,65,67,69,71,73,75,77,79,81,83,85,87,89,-1,-1,-1,91,-1,-1,93,-1,95,-1,-1,-1,-1,-1,-1,-1,-1,-1,-1,-1,-1,-1,-1,-1,-1,-1,-1,-1,-1,-1,-1,-1,-1,-1,-1,-1,-1,-1,-1,-1,-1,-1,-1,-1,-1,-1,-1,-1,-1],"loss_changes":[1.8571445E4,3.7691426E3,1.9695098E3,4.914795E2,7.6201904E2,8.5177686E2,2.4264746E2,9.117529E1,1.1150781E2,2.7920605E2,9.8693176E2,3.3311816E2,3.9618164E1,2.7099243E2,2.660498E2,0E0,7.1941895E1,1.3588794E2,6.877867E1,2.825722E2,0E0,2.4408328E2,3.5918738E2,1.0930137E3,3.8759494E2,0E0,3.9433594E1,3.5664494E1,7.912402E1,1.7415007E2,1.7183789E2,1.2782959E2,1.0803614E0,2.7832385E2,2.3014001E2,1.0727417E1,1.5264822E1,9.594528E2,3.928385E2,8.1258224E1,3.500918E2,4.188817E2,4.0261517E2,3.2945703E2,5.510393E2,2.4936249E2,6.6648627E2,7.177319E1,0E0,0E0,0E0,4.893579E1,0E0,0E0,6.4415007E0,0E0,1.1275391E2,0E0,0E0,0E0,0E0,0E0,0E0,0E0,0E0,0E0,0E0,0E0,0E0,0E0,0E0,0E0,0E0,0E0,0E0,0E0,0E0,0E0,0E0,0E0,0E0,0E0,0E0,0E0,0E0,0E0,0E0,0E0,0E0,0E0,0E0,0E0,0E0,0E0,0E0,0E0,0E0],"parents":[2147483647,0,0,1,1,2,2,3,3,4,4,5,5,6,6,7,7,8,8,9,9,10,10,11,11,12,12,13,13,14,14,16,16,17,17,18,18,19,19,21,21,22,22,23,23,24,24,26,26,27,27,28,28,29,29,30,30,31,31,32,32,33,33,34,34,35,35,36,36,37,37,38,38,39,39,40,40,41,41,42,42,43,43,44,44,45,45,46,46,47,47,51,51,54,54,56,56],"right_children":[2,4,6,8,10,12,14,16,18,20,22,24,26,28,30,-1,32,34,36,38,-1,40,42,44,46,-1,48,50,52,54,56,58,60,62,64,66,68,70,72,74,76,78,80,82,84,86,88,90,-1,-1,-1,92,-1,-1,94,-1,96,-1,-1,-1,-1,-1,-1,-1,-1,-1,-1,-1,-1,-1,-1,-1,-1,-1,-1,-1,-1,-1,-1,-1,-1,-1,-1,-1,-1,-1,-1,-1,-1,-1,-1,-1,-1,-1,-1,-1,-1],"split_conditions":[5.149E1,2.419E1,6.648E1,1.864E1,3.358E1,6.905E1,2.79E1,1.168E1,4.368E1,3.681E1,3.9E1,6.5E1,5.161E1,5.8E1,2.6E1,-7.031689E-1,3.169E1,4.2E1,5.5E1,3.1E1,8.712247E-1,4.263E1,3.607E1,3.05E1,5.455E1,2.2657585E-1,7.025E1,5.6E1,7.8E1,7.342E1,5.238E1,2.456E1,2.85E1,3.58E1,5.7E1,5.561E1,2.014E1,2.077E1,2.823E1,5.489E1,3.6E1,3.15E1,5.2E1,5.431E1,4.835E1,2.86E1,6.081E1,3.22E1,2.3820285E-1,3.628024E-1,-1.3530807E-1,2.78E1,8.519211E-2,1.0882907E0,3.59E1,6.211449E-1,7.152E1,-4.5262098E-1,-7.576863E-1,-3.0093132E-2,-1.3740781E-1,2.8020158E-2,-3.3844784E-1,-5.7051444E-1,-2.5947675E-1,-1.2520461E-1,-3.1070063E-1,-5.330757E-2,1.7538853E-1,6.01867E-1,-9.575736E-2,-2.7440417E-1,-7.4330433E-3,-1.0113638E-1,-4.2071316E-1,4.682343E-1,-3.7815833E-1,3.127402E-1,9.168563E-1,-1.1051475E-1,4.3805552E-1,3.153468E-1,1.2901238E0,-5.2264286E-4,6.00878E-1,1.0343298E0,-3.6356354E-1,-2.493286E-1,6.338903E-1,1.0216322E0,1.8168198E0,1.1109352E0,1.771309E-1,-1.32609E-1,9.9172466E-2,1.7037472E0,1.0392393E0],"split_indices":[2,2,3,2,3,4,0,2,4,2,1,1,3,1,1,0,4,1,1,1,0,2,4,0,3,0,2,1,1,3,4,4,0,0,1,4,2,4,4,4,1,0,1,3,4,0,2,0,0,0,0,0,0,0,0,0,4,0,0,0,0,0,0,0,0,0,0,0,0,0,0,0,0,0,0,0,0,0,0,0,0,0,0,0,0,0,0,0,0,0,0,0,0,0,0,0,0],"split_type":[0,0,0,0,0,0,0,0,0,0,0,0,0,0,0,0,0,0,0,0,0,0,0,0,0,0,0,0,0,0,0,0,0,0,0,0,0,0,0,0,0,0,0,0,0,0,0,0,0,0,0,0,0,0,0,0,0,0,0,0,0,0,0,0,0,0,0,0,0,0,0,0,0,0,0,0,0,0,0,0,0,0,0,0,0,0,0,0,0,0,0,0,0,0,0,0,0],"sum_hessian":[1.277E3,1.043E3,2.34E2,4.37E2,6.06E2,1.56E2,7.8E1,2.13E2,2.24E2,3.91E2,2.15E2,1.32E2,2.4E1,3.2E1,4.6E1,2.4E1,1.89E2,1.97E2,2.7E1,3.89E2,2E0,1.13E2,1.02E2,9E1,4.2E1,1E0,2.3E1,4E0,2.8E1,5E0,4.1E1,1.83E2,6E0,9.5E1,1.02E2,1.6E1,1.1E1,1.59E2,2.3E2,9.1E1,2.2E1,5E1,5.2E1,2.7E1,6.3E1,8E0,3.4E1,2.2E1,1E0,2E0,2E0,2.7E1,1E0,2E0,3E0,4E0,3.7E1,1.66E2,1.7E1,2E0,4E0,3E1,6.5E1,4.3E1,5.9E1,9E0,7E0,4E0,7E0,2.2E1,1.37E2,1.39E2,9.1E1,8.3E1,8E0,1.6E1,6E0,3.1E1,1.9E1,2.5E1,2.7E1,5E0,2.2E1,2.5E1,3.8E1,7E0,1E0,2.1E1,1.3E1,1.9E1,3E0,2.6E1,1E0,1E0,2E0,2.7E1,1E1],"tree_param":{"num_deleted":"0","num_feature":"5","num_nodes":"97","size_leaf_vector":"1"}},{"base_weights":[1.0656094E-1,-1.5306915E0,7.3796883E0,-3.777849E0,-2.175304E-1,5.461978E0,1.1097421E1,-1.2142934E0,-4.105069E0,-9.474322E-1,1.2872096E0,4.485429E0,1.0438742E1,8.558248E0,1.2644129E1,2.4201962E-1,-3.0467856E0,-4.3259315E0,-3.4393033E-1,-5.239334E0,-7.9586387E-1,-5.5397135E-1,3.3125243E0,5.13196E0,1.1701943E0,2.1524715E-1,1.0694317E1,1.03300905E1,4.075463E0,5.121567E0,1.3417729E1,9.800813E-1,-3.0538557E0,-4.636546E0,2.6498058E0,-4.5898724E0,-2.5992332E0,-2.3410308E0,6.791864E-1,-9.197521E-3,-5.600433E-1,1.9523355E0,-1.1453832E0,-1.2071595E0,2.082867E0,5.026136E0,1.6010767E0,7.463779E0,3.302909E0,3.6441739E0,-5.0052123E0,1.0962511E1,2.262928E-1,1.1841951E1,6.015109E0,8.672628E-1,-3.1756606E0,1.0157379E1,6.4315796E-2,6.8978224E0,1.4312775E1,-1.1889886E-1,1.8677942E-1,-1.30329775E-2,-4.9594298E-1,-6.034922E-1,1.0673099E-1,4.163329E-2,4.0000102E-1,-4.8927626E-1,-2.4847567E-1,-4.2259318E-1,-1.1288369E-1,-9.161275E-2,-2.727767E-1,-4.7067914E-2,1.6004205E-1,-2.056676E-1,8.3906E-1,-1.21542275E-1,8.131432E-1,-3.5817426E-2,-2.1662782E-1,4.2416516E-1,-3.4574473E-1,-2.6397303E-1,5.9167683E-1,8.733427E-1,6.761772E-2,1.0908073E0,4.129835E-1,-4.7239158E-4,5.4233074E-1,5.063015E-1,-4.6647564E-1,1.514967E-1,-6.3444036E-1,9.2457706E-1,1.6805584E0,1.2753861E0,3.639056E-1,6.643175E-1,8.093243E-2,-1.5210152E-3,-7.9087317E-1,1.2211603E0,3.0244657E-1,-1.2597847E-1,9.256109E-2,8.060841E-1,2.6601842E-1,1.5820613E0,9.447632E-1],"categories":[],"categories_nodes":[],"categories_segments":[],"categories_sizes":[],"default_left":[0,0,0,0,0,0,0,0,0,0,0,0,0,0,0,0,0,0,0,0,0,0,0,0,0,0,0,0,0,0,0,0,0,0,0,0,0,0,0,0,0,0,0,0,0,0,0,0,0,0,0,0,0,0,0,0,0,0,0,0,0,0,0,0,0,0,0,0,0,0,0,0,0,0,0,0,0,0,0,0,0,0,0,0,0,0,0,0,0,0,0,0,0,0,0,0,0,0,0,0,0,0,0,0,0,0,0,0,0,0,0,0,0],"id":12,"left_children":[1,3,5,7,9,11,13,15,17,19,21,23,25,27,29,31,33,35,37,39,41,43,45,47,49,-1,51,53,55,57,59,61,63,65,67,69,71,73,75,-1,-1,77,79,81,83,85,87,89,91,93,95,97,-1,99,101,-1,103,105,107,109,111,-1,-1,-1,-1,-1,-1,-1,-1,-1,-1,-1,-1,-1,-1,-1,-1,-1,-1,-1,-1,-1,-1,-1,-1,-1,-1,-1,-1,-1,-1,-1,-1,-1,-1,-1,-1,-1,-1,-1,-1,-1,-1,-1,-1,-1,-1,-1,-1,-1,-1,-1,-1],"loss_changes":[1.522965E4,3.0798967E3,1.6148271E3,3.1797168E2,7.2610583E2,7.1620605E2,2.020498E2,1.2082808E2,2.817788E2,2.8531E2,8.0729285E2,2.7906714E2,2.9924805E1,2.200122E2,2.0479541E2,6.623957E1,1.9341028E2,1.3481982E2,4.2455338E1,2.7365479E1,4.1623273E2,1.9886243E2,2.9402673E2,4.4876465E2,3.6962997E2,0E0,2.9462646E1,7.881323E1,3.9422205E2,1.5215092E2,1.4636865E2,4.458204E1,2.7208618E1,1.3405923E2,1.3412891E1,1.6510107E2,1.02864716E2,1.358448E0,1.558342E1,0E0,0E0,1.2819995E3,2.58735E2,7.413765E1,2.897532E2,3.6381934E2,3.4372015E2,5.0613965E2,4.4888965E2,2.240316E2,7.073393E1,7.533325E1,0E0,7.327295E1,2.078009E1,0E0,7.467288E1,7.0242004E0,5.727835E0,1.3055847E1,1.1462256E2,0E0,0E0,0E0,0E0,0E0,0E0,0E0,0E0,0E0,0E0,0E0,0E0,0E0,0E0,0E0,0E0,0E0,0E0,0E0,0E0,0E0,0E0,0E0,0E0,0E0,0E0,0E0,0E0,0E0,0E0,0E0,0E0,0E0,0E0,0E0,0E0,0E0,0E0,0E0,0E0,0E0,0E0,0E0,0E0,0E0,0E0,0E0,0E0,0E0,0E0,0E0,0E0],"parents":[2147483647,0,0,1,1,2,2,3,3,4,4,5,5,6,6,7,7,8,8,9,9,10,10,11,11,12,12,13,13,14,14,15,15,16,16,17,17,18,18,19,19,20,20,21,21,22,22,23,23,24,24,26,26,27,27,28,28,29,29,30,30,31,31,32,32,33,33,34,34,35,35,36,36,37,37,38,38,41,41,42,42,43,43,44,44,45,45,46,46,47,47,48,48,49,49,50,50,51,51,53,53,54,54,56,56,57,57,58,58,59,59,60,60],"right_children":[2,4,6,8,10,12,14,16,18,20,22,24,26,28,30,32,34,36,38,40,42,44,46,48,50,-1,52,54,56,58,60,62,64,66,68,70,72,74,76,-1,-1,78,80,82,84,86,88,90,92,94,96,98,-1,100,102,-1,104,106,108,110,112,-1,-1,-1,-1,-1,-1,-1,-1,-1,-1,-1,-1,-1,-1,-1,-1,-1,-1,-1,-1,-1,-1,-1,-1,-1,-1,-1,-1,-1,-1,-1,-1,-1,-1,-1,-1,-1,-1,-1,-1,-1,-1,-1,-1,-1,-1,-1,-1,-1,-1,-1,-1],"split_conditions":[5.149E1,2.29E1,6.648E1,2.8E1,3.358E1,6.905E1,2.79E1,3.011E1,4.368E1,1.76E1,3.9E1,7.5E1,5.161E1,6.949E1,2.6E1,2.6E1,2.5E1,6.9E1,5E1,1.255E1,2.077E1,4.263E1,3.607E1,3.05E1,2.67E1,2.1524715E-1,7.025E1,7E1,2.76E1,7.342E1,5.646E1,1.2E1,3.77E1,4.27E1,2.6E1,2.157E1,1.354E1,1.923E1,2.014E1,-9.197521E-3,-5.600433E-1,1.982E1,3.681E1,3.71E1,3.6E1,2.259E1,4.2E1,6.1E1,4.835E1,8.5E1,3.386E1,3.22E1,2.262928E-1,8.416E1,7.8E1,8.672628E-1,5.8E1,3.75E1,3.59E1,7.601E1,7.152E1,-1.1889886E-1,1.8677942E-1,-1.30329775E-2,-4.9594298E-1,-6.034922E-1,1.0673099E-1,4.163329E-2,4.0000102E-1,-4.8927626E-1,-2.4847567E-1,-4.2259318E-1,-1.1288369E-1,-9.161275E-2,-2.727767E-1,-4.7067914E-2,1.6004205E-1,-2.056676E-1,8.3906E-1,-1.21542275E-1,8.131432E-1,-3.5817426E-2,-2.1662782E-1,4.2416516E-1,-3.4574473E-1,-2.6397303E-1,5.9167683E-1,8.733427E-1,6.761772E-2,1.0908073E0,4.129835E-1,-4.7239158E-4,5.4233074E-1,5.063015E-1,-4.6647564E-1,1.514967E-1,-6.3444036E-1,9.2457706E-1,1.6805584E0,1.2753861E0,3.639056E-1,6.643175E-1,8.093243E-2,-1.5210152E-3,-7.9087317E-1,1.2211603E0,3.0244657E-1,-1.2597847E-1,9.256109E-2,8.060841E-1,2.6601842E-1,1.5820613E0,9.447632E-1],"split_indices":[2,2,3,1,3,4,0,4,4,4,1,1,3,4,1,1,1,1,1,4,4,2,4,0,0,0,2,1,0,3,4,1,0,0,1,3,4,2,2,0,0,4,2,0,1,4,1,1,4,1,4,0,0,2,1,0,1,0,0,2,4,0,0,0,0,0,0,0,0,0,0,0,0,0,0,0,0,0,0,0,0,0,0,0,0,0,0,0,0,0,0,0,0,0,0,0,0,0,0,0,0,0,0,0,0,0,0,0,0,0,0,0,0],"split_type":[0,0,0,0,0,0,0,0,0,0,0,0,0,0,0,0,0,0,0,0,0,0,0,0,0,0,0,0,0,0,0,0,0,0,0,0,0,0,0,0,0,0,0,0,0,0,0,0,0,0,0,0,0,0,0,0,0,0,0,0,0,0,0,0,0,0,0,0,0,0,0,0,0,0,0,0,0,0,0,0,0,0,0,0,0,0,0,0,0,0,0,0,0,0,0,0,0,0,0,0,0,0,0,0,0,0,0,0,0,0,0,0,0],"sum_hessian":[1.277E3,1.043E3,2.34E2,3.84E2,6.59E2,1.56E2,7.8E1,4.4E1,3.4E2,4.44E2,2.15E2,1.32E2,2.4E1,3.2E1,4.6E1,2.5E1,1.9E1,3.21E2,1.9E1,1.4E1,4.3E2,1.13E2,1.02E2,1.1E2,2.2E1,1E0,2.3E1,2.2E1,1E1,5E0,4.1E1,2.1E1,4E0,1.5E1,4E0,2.77E2,4.4E1,6E0,1.3E1,1E0,1.3E1,4.8E1,3.82E2,9.1E1,2.2E1,5E1,5.2E1,4.7E1,6.3E1,1.6E1,6E0,2.2E1,1E0,1.5E1,7E0,6E0,4E0,2E0,3E0,6E0,3.5E1,6E0,1.5E1,2E0,2E0,1.2E1,3E0,2E0,2E0,2.41E2,3.6E1,2E1,2.4E1,2E0,4E0,6E0,7E0,3E1,1.8E1,3.8E2,2E0,4.9E1,4.2E1,1.6E1,6E0,5E0,4.5E1,5E0,4.7E1,2.2E1,2.5E1,2.5E1,3.8E1,1.4E1,2E0,1E0,5E0,1.9E1,3E0,1.3E1,2E0,6E0,1E0,3E0,1E0,1E0,1E0,1E0,2E0,4E0,2E0,2.5E1,1E1],"tree_param":{"num_deleted":"0","num_feature":"5","num_nodes":"113","size_leaf_vector":"1"}},{"base_weights":[1.0531587E-1,-1.3777856E0,6.6936245E0,-3.2064219E0,-5.600554E-2,4.945393E0,1.0083229E1,-4.5630054E0,-2.599902E0,4.1506E0,-2.6660234E-1,4.108728E0,9.892714E0,7.7769504E0,1.1487994E1,-3.3249068E0,-5.0544844E0,-4.0808225E0,-2.2722447E0,-8.818064E-1,5.791902E0,-3.0125933E0,-5.173577E-2,5.1745996E0,2.2308123E0,2.0448475E-1,1.0169047E1,9.400757E0,3.6747224E0,9.038855E0,1.4089842E1,-4.7524743E0,-2.3185225E0,-3.8669522E0,-5.5248146E0,2.0634678E-1,-4.3568234E0,-1.2609291E0,-3.0722904E0,1.3910782E0,-3.5024605E0,4.407811E0,8.128123E-1,-4.911125E0,-2.0894763E0,8.105068E0,-3.3344543E-1,9.205591E0,2.8507547E0,-3.8818142E0,4.885568E0,1.0462522E1,2.1497822E-1,9.758168E0,7.68858E-2,7.929259E0,-3.0165725E0,2.6267536E0,1.07458E1,1.4852159E1,-5.78249E-2,-3.5601738E-1,-6.6635007E-1,-3.8449833E-1,-9.4278604E-2,-4.0773436E-1,-1.4800715E-1,-5.6361187E-1,7.9930305E-2,-4.8544025E-1,-2.659508E-1,-2.0370094E-1,1.2864755E-1,-3.921742E-1,-9.968614E-2,-3.3073427E-4,1.7405014E-1,-9.5330715E-2,-4.0344092E-1,4.8637065E-1,1.8241997E-1,-8.73766E-3,-5.305823E-1,-9.724551E-2,-3.9304718E-1,1.5081323E0,-2.5004157E-1,-8.538725E-2,9.9644296E-2,4.7797742E-1,1.5814819E0,5.3911354E-2,7.323997E-1,-1.032249E0,8.57306E-1,5.300865E-1,-4.824911E-1,8.651163E-1,1.5545166E0,1.0540156E0,3.6041793E-1,4.113066E-1,9.763137E-1,-1.4068604E-3,-7.513294E-1,-9.8781586E-2,4.2701444E-1,1.1573739E0,1.9202513E-1,4.392817E-1,1.5770262E0],"categories":[],"categories_nodes":[],"categories_segments":[],"categories_sizes":[],"default_left":[0,0,0,0,0,0,0,0,0,0,0,0,0,0,0,0,0,0,0,0,0,0,0,0,0,0,0,0,0,0,0,0,0,0,0,0,0,0,0,0,0,0,0,0,0,0,0,0,0,0,0,0,0,0,0,0,0,0,0,0,0,0,0,0,0,0,0,0,0,0,0,0,0,0,0,0,0,0,0,0,0,0,0,0,0,0,0,0,0,0,0,0,0,0,0,0,0,0,0,0,0,0,0,0,0,0,0,0,0,0,0],"id":13,"left_children":[1,3,5,7,9,11,13,15,17,19,21,23,25,27,29,31,33,35,37,39,41,43,45,47,49,-1,51,53,55,57,59,61,63,65,67,-1,69,71,73,75,77,79,-1,81,83,85,87,89,91,93,95,97,-1,99,-1,101,103,105,107,109,-1,-1,-1,-1,-1,-1,-1,-1,-1,-1,-1,-1,-1,-1,-1,-1,-1,-1,-1,-1,-1,-1,-1,-1,-1,-1,-1,-1,-1,-1,-1,-1,-1,-1,-1,-1,-1,-1,-1,-1,-1,-1,-1,-1,-1,-1,-1,-1,-1,-1,-1],"loss_changes":[1.2496728E4,2.5232256E3,1.3427002E3,3.48521E2,5.3884644E2,6.092158E2,1.6660156E2,6.4733154E1,1.3872388E2,2.4463861E2,3.4146667E2,2.6067627E2,2.6915771E1,1.8527527E2,1.7214111E2,4.7885223E1,3.1137695E1,1.0056494E2,2.000188E2,5.2523746E1,3.531067E1,6.334616E1,1.2389462E3,7.793535E2,8.465689E2,0E0,2.693042E1,6.345569E1,3.370711E2,2.6729126E2,2.4340527E2,1.2733063E1,5.0975204E1,9.030609E0,5.025818E1,0E0,3.1006226E1,2.2602055E2,2.4290735E2,2.4419088E0,1.5780449E0,9.973328E0,0E0,2.4287384E1,5.7870712E1,1.3694677E3,3.614401E2,8.3119727E2,5.751213E2,1.3719802E3,1.7075458E2,4.9645996E1,0E0,6.788281E1,0E0,8.832581E0,6.740142E1,4.5799168E1,1.312229E2,1.227793E2,0E0,0E0,0E0,0E0,0E0,0E0,0E0,0E0,0E0,0E0,0E0,0E0,0E0,0E0,0E0,0E0,0E0,0E0,0E0,0E0,0E0,0E0,0E0,0E0,0E0,0E0,0E0,0E0,0E0,0E0,0E0,0E0,0E0,0E0,0E0,0E0,0E0,0E0,0E0,0E0,0E0,0E0,0E0,0E0,0E0,0E0,0E0,0E0,0E0,0E0,0E0],"parents":[2147483647,0,0,1,1,2,2,3,3,4,4,5,5,6,6,7,7,8,8,9,9,10,10,11,11,12,12,13,13,14,14,15,15,16,16,17,17,18,18,19,19,20,20,21,21,22,22,23,23,24,24,26,26,27,27,28,28,29,29,30,30,31,31,32,32,33,33,34,34,36,36,37,37,38,38,39,39,40,40,41,41,43,43,44,44,45,45,46,46,47,47,48,48,49,49,50,50,51,51,53,53,55,55,56,56,57,57,58,58,59,59],"right_children":[2,4,6,8,10,12,14,16,18,20,22,24,26,28,30,32,34,36,38,40,42,44,46,48,50,-1,52,54,56,58,60,62,64,66,68,-1,70,72,74,76,78,80,-1,82,84,86,88,90,92,94,96,98,-1,100,-1,102,104,106,108,110,-1,-1,-1,-1,-1,-1,-1,-1,-1,-1,-1,-1,-1,-1,-1,-1,-1,-1,-1,-1,-1,-1,-1,-1,-1,-1,-1,-1,-1,-1,-1,-1,-1,-1,-1,-1,-1,-1,-1,-1,-1,-1,-1,-1,-1,-1,-1,-1,-1,-1,-1],"split_conditions":[5.149E1,2.419E1,6.648E1,1.599E1,2.66E1,6.969E1,2.79E1,1.354E1,1.618E1,2.945E1,1.982E1,5.613E1,5.161E1,6.949E1,4.8E1,3.24E1,3.32E1,1.492E1,2.456E1,7.7E1,4.69E1,1.76E1,2.077E1,5.7E1,6.021E1,2.0448475E-1,7.025E1,7.8E1,2.76E1,3.07E1,8.787E1,1.355E1,1.406E1,6.6E1,1.881E1,2.0634678E-1,1.993E1,2.278E1,3.813E1,2.53E1,2.49E1,3.427E1,8.128123E-1,1.255E1,3.93E1,3E1,3.603E1,4.624E1,5.109E1,5.846E1,7.169E1,3.22E1,2.1497822E-1,8.416E1,7.68858E-2,6.4E1,5.8E1,6.812E1,3.88E1,2.927E1,-5.78249E-2,-3.5601738E-1,-6.6635007E-1,-3.8449833E-1,-9.4278604E-2,-4.0773436E-1,-1.4800715E-1,-5.6361187E-1,7.9930305E-2,-4.8544025E-1,-2.659508E-1,-2.0370094E-1,1.2864755E-1,-3.921742E-1,-9.968614E-2,-3.3073427E-4,1.7405014E-1,-9.5330715E-2,-4.0344092E-1,4.8637065E-1,1.8241997E-1,-8.73766E-3,-5.305823E-1,-9.724551E-2,-3.9304718E-1,1.5081323E0,-2.5004157E-1,-8.538725E-2,9.9644296E-2,4.7797742E-1,1.5814819E0,5.3911354E-2,7.323997E-1,-1.032249E0,8.57306E-1,5.300865E-1,-4.824911E-1,8.651163E-1,1.5545166E0,1.0540156E0,3.6041793E-1,4.113066E-1,9.763137E-1,-1.4068604E-3,-7.513294E-1,-9.8781586E-2,4.2701444E-1,1.1573739E0,1.9202513E-1,4.392817E-1,1.5770262E0],"split_indices":[2,2,3,2,0,4,0,4,4,3,4,4,3,4,1,0,0,3,4,1,3,4,4,3,4,0,2,1,0,0,4,2,2,1,3,0,3,4,4,0,0,4,0,4,0,1,2,4,4,2,2,0,0,2,0,1,1,2,0,4,0,0,0,0,0,0,0,0,0,0,0,0,0,0,0,0,0,0,0,0,0,0,0,0,0,0,0,0,0,0,0,0,0,0,0,0,0,0,0,0,0,0,0,0,0,0,0,0,0,0,0],"split_type":[0,0,0,0,0,0,0,0,0,0,0,0,0,0,0,0,0,0,0,0,0,0,0,0,0,0,0,0,0,0,0,0,0,0,0,0,0,0,0,0,0,0,0,0,0,0,0,0,0,0,0,0,0,0,0,0,0,0,0,0,0,0,0,0,0,0,0,0,0,0,0,0,0,0,0,0,0,0,0,0,0,0,0,0,0,0,0,0,0,0,0,0,0,0,0,0,0,0,0,0,0,0,0,0,0,0,0,0,0,0,0],"sum_hessian":[1.277E3,1.043E3,2.34E2,4.37E2,6.06E2,1.56E2,7.8E1,1.33E2,3.04E2,2.8E1,5.78E2,1.35E2,2.1E1,3.2E1,4.6E1,4E1,9.3E1,5.3E1,2.51E2,7E0,2.1E1,4.1E1,5.37E2,8.5E1,5E1,1E0,2E1,2.2E1,1E1,2.6E1,2E1,1.5E1,2.5E1,2.9E1,6.4E1,2E0,5.1E1,1.12E2,1.39E2,4E0,3E0,1.5E1,6E0,1.2E1,2.9E1,1.7E1,5.2E2,3E1,5.5E1,1.5E1,3.5E1,1.9E1,1E0,2.1E1,1E0,6E0,4E0,6E0,2E1,1.9E1,1E0,1.1E1,4E0,1.1E1,1.4E1,2.6E1,3E0,6.3E1,1E0,3.8E1,1.3E1,8.6E1,2.6E1,9.8E1,4.1E1,1E0,3E0,1E0,2E0,1.2E1,3E0,1E0,1.1E1,1.9E1,1E1,1E1,7E0,3.74E2,1.46E2,1.9E1,1.1E1,3.7E1,1.8E1,1E1,5E0,3.4E1,1E0,1.6E1,3E0,1.8E1,3E0,3E0,3E0,3E0,1E0,2E0,4E0,1.8E1,2E0,2E0,1.7E1],"tree_param":{"num_deleted":"0","num_feature":"5","num_nodes":"111","size_leaf_vector":"1"}},{"base_weights":[1.0187893E-1,-1.2421649E0,6.0724316E0,-3.079706E0,-1.6838385E-1,4.627563E0,9.481425E0,-8.413996E-1,-3.3660522E0,-8.856758E-1,8.9740074E-1,3.932111E0,9.032493E0,1.0663882E1,6.652864E0,4.1357425E-1,-2.4307957E0,-3.613829E0,-9.439586E-1,-1.8893962E-1,-1.760493E0,-4.8527542E-1,2.6357172E0,2.9292324E0,5.799053E0,1.942606E-1,9.277601E0,7.503635E0,1.3379802E1,2.513095E0,8.693201E0,-1.0064847E0,1.9110552E0,-3.872837E0,2.6698956E0,-3.2915123E0,-5.2176003E0,2.167334E-1,-4.0632186E0,1.7109299E0,-1.5320092E0,-8.216611E-1,-3.848956E0,4.4189757E-1,-1.7579544E0,2.1247878E0,9.395399E0,4.9728627E0,6.4935213E-1,6.073848E0,-5.3067654E-1,9.537251E0,2.0422935E-1,8.20316E0,3.204808E-1,1.396926E1,-8.887673E-3,-5.986786E-2,5.744266E-1,4.93583E0,1.1363922E0,6.3640173E-3,-2.4439247E-1,-7.646542E-2,2.4670617E-1,-5.160843E-1,1.2813917E-1,4.5503426E-2,3.9947918E-1,-3.4573963E-1,7.778076E-2,-1.1109658E-2,-5.659229E-1,7.094453E-2,-1.8960033E-1,-7.052393E-2,-4.394811E-1,1.1471205E0,1.0349856E-2,-1.8564145E-1,3.6472246E-1,-2.217495E-2,-3.696391E-1,-3.099424E-1,-8.438755E-1,1.560378E0,8.4157325E-3,-2.7161038E-1,1.7895763E-1,-1.7234081E-1,2.888131E-1,1.0862886E0,-4.3850135E-2,8.5888255E-1,1.9739449E-2,5.580511E-1,-8.342181E-2,3.4421906E-1,7.056231E-1,-4.583666E-1,3.787651E-1,7.836937E-1,1.4379278E0,4.2062923E-1,8.6610603E-1,1.6358223E0,7.445176E-1,-1.8334332E-1,2.3248418E-1,5.159378E-2,6.323138E-1],"categories":[],"categories_nodes":[],"categories_segments":[],"categories_sizes":[],"default_left":[0,0,0,0,0,0,0,0,0,0,0,0,0,0,0,0,0,0,0,0,0,0,0,0,0,0,0,0,0,0,0,0,0,0,0,0,0,0,0,0,0,0,0,0,0,0,0,0,0,0,0,0,0,0,0,0,0,0,0,0,0,0,0,0,0,0,0,0,0,0,0,0,0,0,0,0,0,0,0,0,0,0,0,0,0,0,0,0,0,0,0,0,0,0,0,0,0,0,0,0,0,0,0,0,0,0,0,0,0,0,0],"id":14,"left_children":[1,3,5,7,9,11,13,15,17,19,21,23,25,27,29,31,33,35,37,39,41,43,45,47,49,-1,51,53,55,57,59,61,63,65,67,69,71,73,75,77,79,81,83,85,87,89,91,93,95,97,99,101,-1,103,-1,105,-1,107,-1,109,-1,-1,-1,-1,-1,-1,-1,-1,-1,-1,-1,-1,-1,-1,-1,-1,-1,-1,-1,-1,-1,-1,-1,-1,-1,-1,-1,-1,-1,-1,-1,-1,-1,-1,-1,-1,-1,-1,-1,-1,-1,-1,-1,-1,-1,-1,-1,-1,-1,-1,-1],"loss_changes":[1.026309E4,2.0594155E3,1.113627E3,2.4392627E2,5.0535077E2,4.7607373E2,1.5983545E2,9.076459E1,2.0123608E2,2.4042648E2,6.406177E2,2.5637134E2,2.020874E1,3.0300342E2,1.7242322E2,5.7212746E1,1.5744821E2,1.4255493E2,1.2035713E2,5.6653735E2,3.399627E2,1.7659586E2,3.8757587E2,4.4871643E2,9.019214E1,0E0,1.9973877E1,4.5881714E1,1.9178271E2,7.516702E1,9.443298E1,2.1690895E1,2.1226704E1,1.12831924E2,1.2854538E1,1.7819824E2,1.1213037E2,2.7369375E1,6.921936E0,1.4421981E3,2.2519302E2,2.0957954E2,1.5961566E2,4.7057614E2,2.1900175E2,3.3103934E2,1.2021228E2,8.7896826E2,3.484942E2,9.9805176E1,6.986773E1,5.196985E1,0E0,1.7248535E-1,0E0,2.366836E2,0E0,2.963907E1,0E0,4.5791656E1,0E0,0E0,0E0,0E0,0E0,0E0,0E0,0E0,0E0,0E0,0E0,0E0,0E0,0E0,0E0,0E0,0E0,0E0,0E0,0E0,0E0,0E0,0E0,0E0,0E0,0E0,0E0,0E0,0E0,0E0,0E0,0E0,0E0,0E0,0E0,0E0,0E0,0E0,0E0,0E0,0E0,0E0,0E0,0E0,0E0,0E0,0E0,0E0,0E0,0E0,0E0],"parents":[2147483647,0,0,1,1,2,2,3,3,4,4,5,5,6,6,7,7,8,8,9,9,10,10,11,11,12,12,13,13,14,14,15,15,16,16,17,17,18,18,19,19,20,20,21,21,22,22,23,23,24,24,26,26,27,27,28,28,29,29,30,30,31,31,32,32,33,33,34,34,35,35,36,36,37,37,38,38,39,39,40,40,41,41,42,42,43,43,44,44,45,45,46,46,47,47,48,48,49,49,50,50,51,51,53,53,55,55,57,57,59,59],"right_children":[2,4,6,8,10,12,14,16,18,20,22,24,26,28,30,32,34,36,38,40,42,44,46,48,50,-1,52,54,56,58,60,62,64,66,68,70,72,74,76,78,80,82,84,86,88,90,92,94,96,98,100,102,-1,104,-1,106,-1,108,-1,110,-1,-1,-1,-1,-1,-1,-1,-1,-1,-1,-1,-1,-1,-1,-1,-1,-1,-1,-1,-1,-1,-1,-1,-1,-1,-1,-1,-1,-1,-1,-1,-1,-1,-1,-1,-1,-1,-1,-1,-1,-1,-1,-1,-1,-1,-1,-1,-1,-1,-1,-1],"split_conditions":[5.149E1,2.29E1,6.85E1,2.8E1,3.189E1,6.969E1,7.152E1,3.011E1,3.169E1,3.47E1,4E1,6.117E1,5.161E1,6.251E1,8.12E1,2.014E1,2.5E1,2.456E1,3.43E1,4.8E1,3.1E1,3.71E1,3.59E1,5.7E1,7.169E1,1.942606E-1,7.025E1,8.416E1,3.88E1,8.12E1,3.07E1,1.8E1,1.2E1,4.27E1,2.6E1,2.389E1,2.87E1,2.268E1,1.759E1,2.465E1,3.134E1,4.21E1,3.99E1,2.077E1,4.495E1,4.6E1,2.801E1,5.392E1,3.682E1,4.6E1,2.81E1,3.22E1,2.0422935E-1,2.6E1,3.204808E-1,5.9E1,-8.887673E-3,3.59E1,5.744266E-1,5.3E1,1.1363922E0,6.3640173E-3,-2.4439247E-1,-7.646542E-2,2.4670617E-1,-5.160843E-1,1.2813917E-1,4.5503426E-2,3.9947918E-1,-3.4573963E-1,7.778076E-2,-1.1109658E-2,-5.659229E-1,7.094453E-2,-1.8960033E-1,-7.052393E-2,-4.394811E-1,1.1471205E0,1.0349856E-2,-1.8564145E-1,3.6472246E-1,-2.217495E-2,-3.696391E-1,-3.099424E-1,-8.438755E-1,1.560378E0,8.4157325E-3,-2.7161038E-1,1.7895763E-1,-1.7234081E-1,2.888131E-1,1.0862886E0,-4.3850135E-2,8.5888255E-1,1.9739449E-2,5.580511E-1,-8.342181E-2,3.4421906E-1,7.056231E-1,-4.583666E-1,3.787651E-1,7.836937E-1,1.4379278E0,4.2062923E-1,8.6610603E-1,1.6358223E0,7.445176E-1,-1.8334332E-1,2.3248418E-1,5.159378E-2,6.323138E-1],"split_indices":[2,2,3,1,3,4,4,4,4,0,1,2,3,4,4,2,1,4,0,1,1,0,0,3,2,0,2,2,0,3,0,1,1,0,1,4,0,2,2,4,2,0,0,4,4,1,4,4,4,1,0,0,0,0,0,1,0,0,0,1,0,0,0,0,0,0,0,0,0,0,0,0,0,0,0,0,0,0,0,0,0,0,0,0,0,0,0,0,0,0,0,0,0,0,0,0,0,0,0,0,0,0,0,0,0,0,0,0,0,0,0],"split_type":[0,0,0,0,0,0,0,0,0,0,0,0,0,0,0,0,0,0,0,0,0,0,0,0,0,0,0,0,0,0,0,0,0,0,0,0,0,0,0,0,0,0,0,0,0,0,0,0,0,0,0,0,0,0,0,0,0,0,0,0,0,0,0,0,0,0,0,0,0,0,0,0,0,0,0,0,0,0,0,0,0,0,0,0,0,0,0,0,0,0,0,0,0,0,0,0,0,0,0,0,0,0,0,0,0,0,0,0,0,0,0],"sum_hessian":[1.277E3,1.043E3,2.34E2,3.84E2,6.59E2,1.66E2,6.8E1,4.4E1,3.4E2,3.94E2,2.65E2,1.45E2,2.1E1,4.6E1,2.2E1,2.5E1,1.9E1,3.08E2,3.2E1,2.2E2,1.74E2,1.48E2,1.17E2,9.6E1,4.9E1,1E0,2E1,2.3E1,2.3E1,8E0,1.4E1,1.3E1,1.2E1,1.5E1,4E0,2.59E2,4.9E1,2.4E1,8E0,9.1E1,1.29E2,1.21E2,5.3E1,8.6E1,6.2E1,1.1E2,7E0,5E1,4.6E1,4.7E1,2E0,1.9E1,1E0,1.9E1,4E0,2.2E1,1E0,5E0,3E0,7E0,7E0,8E0,5E0,2E0,1E1,1.2E1,3E0,2E0,2E0,2.49E2,1E1,4E0,4.5E1,2E1,4E0,1E0,7E0,1.2E1,7.9E1,1.22E2,7E0,1.01E2,2E1,4.7E1,6E0,1E0,8.5E1,4.9E1,1.3E1,1.8E1,9.2E1,6E0,1E0,2.8E1,2.2E1,1E1,3.6E1,1.4E1,3.3E1,1E0,1E0,1.6E1,3E0,3E0,1.6E1,1.5E1,7E0,3E0,2E0,2E0,5E0],"tree_param":{"num_deleted":"0","num_feature":"5","num_nodes":"111","size_leaf_vector":"1"}},{"base_weights":[1.01321466E-1,-1.1170465E0,5.513555E0,-2.9912746E0,-2.5045592E-1,3.3511949E0,7.42219E0,-3.216451E0,-3.4516653E-1,-8.8121927E-1,8.175665E-1,2.3841872E0,7.6802206E0,6.6242294E0,1.1020558E1,-4.5817706E-1,-3.4300108E0,4.8908263E-1,-2.0680075E0,-4.1974354E0,-7.2528994E-1,-4.2684066E-1,2.3819656E0,3.7533624E0,-1.288432E0,4.0066357E0,9.3501014E-1,6.892179E0,1.926615E0,4.066999E0,1.2939358E1,6.278004E-1,-3.6397467E0,-3.0745914E0,-5.444192E0,-8.680024E-1,1.3530492E0,-3.6425128E0,-7.990036E-2,-5.98742E-1,-3.0026262E0,-1.17780775E-1,-1.5248704E0,1.4501277E0,-9.525938E-1,1.913357E0,8.586164E0,7.552302E0,5.5545497E-1,-5.5495048E0,2.2063215E0,1.3638163E0,5.319564E0,7.5914617E0,4.5466156E0,-2.3293686E-1,3.0241737E0,4.4162622E-1,1.1603413E-1,1.7968151E1,7.0316143E0,-1.0124512E-1,1.3365473E-1,-6.1890274E-1,9.7254306E-2,-3.157464E-1,2.64568E-1,-8.6665966E-2,-5.7827693E-1,-1.5745182E-1,-5.421404E-2,2.1509062E-1,-1.7574908E-1,-6.699772E-2,-4.2181525E-1,1.974776E-1,-2.1079433E-1,-5.3754963E-2,-3.934902E-1,1.5625036E-1,-1.0971916E-1,-6.8677805E-2,-3.409557E-1,4.0970904E-1,-4.7525246E-2,-3.6244264E-1,-1.4938416E-2,-1.5601383E-1,2.6024222E-1,9.9317807E-1,-4.1657638E-2,3.5174194E-1,1.3647747E0,-1.3090399E-1,6.708721E-1,-1.0010226E0,1.1169399E0,4.1047874E-1,-2.4115677E-1,1.6080551E-1,3.1554986E-2,5.930287E-1,1.4383355E-1,6.338722E-1,1.0884198E0,6.847206E-1,2.2499235E-1,4.281581E-1,3.395729E-2,1.9047425E0,5.2066153E-1,2.4765956E-1,7.979249E-1],"categories":[],"categories_nodes":[],"categories_segments":[],"categories_sizes":[],"default_left":[0,0,0,0,0,0,0,0,0,0,0,0,0,0,0,0,0,0,0,0,0,0,0,0,0,0,0,0,0,0,0,0,0,0,0,0,0,0,0,0,0,0,0,0,0,0,0,0,0,0,0,0,0,0,0,0,0,0,0,0,0,0,0,0,0,0,0,0,0,0,0,0,0,0,0,0,0,0,0,0,0,0,0,0,0,0,0,0,0,0,0,0,0,0,0,0,0,0,0,0,0,0,0,0,0,0,0,0,0,0,0,0,0],"id":15,"left_children":[1,3,5,7,9,11,13,15,17,19,21,23,25,27,29,31,33,35,37,39,41,43,45,47,49,51,-1,53,55,57,59,61,63,65,67,69,71,73,75,-1,77,79,81,83,85,87,89,91,93,95,97,99,101,103,105,-1,107,-1,-1,109,111,-1,-1,-1,-1,-1,-1,-1,-1,-1,-1,-1,-1,-1,-1,-1,-1,-1,-1,-1,-1,-1,-1,-1,-1,-1,-1,-1,-1,-1,-1,-1,-1,-1,-1,-1,-1,-1,-1,-1,-1,-1,-1,-1,-1,-1,-1,-1,-1,-1,-1,-1,-1],"loss_changes":[8.433408E3,1.6949036E3,9.450093E2,1.9551709E2,4.8239404E2,4.5054346E2,2.8304492E2,1.7750171E2,3.9817944E1,2.2964859E2,5.1885205E2,4.7248267E2,8.522656E1,1.1762891E2,2.2756787E2,8.175263E1,1.8513916E2,2.3451494E1,2.7881535E1,2.4795807E1,2.0917973E2,1.4841786E2,3.2663788E2,8.219137E2,3.9942035E2,2.0503738E1,0E0,1.26225586E2,3.974276E1,9.667587E-1,3.489961E2,2.2278605E1,7.656722E1,1.2307422E2,5.8532104E1,9.8820305E-1,3.3561394E1,5.729477E0,2.4997574E1,0E0,3.0058624E1,4.0655377E2,2.9145312E2,1.7012866E2,2.5054544E2,2.697347E2,1.0105121E2,7.1442175E2,4.447458E2,1.00674854E3,1.4140253E2,5.1668835E-1,3.322052E0,2.362539E2,1.1668799E2,0E0,1.8799915E1,0E0,0E0,1.1013184E1,1.9087067E1,0E0,0E0,0E0,0E0,0E0,0E0,0E0,0E0,0E0,0E0,0E0,0E0,0E0,0E0,0E0,0E0,0E0,0E0,0E0,0E0,0E0,0E0,0E0,0E0,0E0,0E0,0E0,0E0,0E0,0E0,0E0,0E0,0E0,0E0,0E0,0E0,0E0,0E0,0E0,0E0,0E0,0E0,0E0,0E0,0E0,0E0,0E0,0E0,0E0,0E0,0E0,0E0],"parents":[2147483647,0,0,1,1,2,2,3,3,4,4,5,5,6,6,7,7,8,8,9,9,10,10,11,11,12,12,13,13,14,14,15,15,16,16,17,17,18,18,19,19,20,20,21,21,22,22,23,23,24,24,25,25,27,27,28,28,29,29,30,30,31,31,32,32,33,33,34,34,35,35,36,36,37,37,38,38,40,40,41,41,42,42,43,43,44,44,45,45,46,46,47,47,48,48,49,49,50,50,51,51,52,52,53,53,54,54,56,56,59,59,60,60],"right_children":[2,4,6,8,10,12,14,16,18,20,22,24,26,28,30,32,34,36,38,40,42,44,46,48,50,52,-1,54,56,58,60,62,64,66,68,70,72,74,76,-1,78,80,82,84,86,88,90,92,94,96,98,100,102,104,106,-1,108,-1,-1,110,112,-1,-1,-1,-1,-1,-1,-1,-1,-1,-1,-1,-1,-1,-1,-1,-1,-1,-1,-1,-1,-1,-1,-1,-1,-1,-1,-1,-1,-1,-1,-1,-1,-1,-1,-1,-1,-1,-1,-1,-1,-1,-1,-1,-1,-1,-1,-1,-1,-1,-1,-1,-1],"split_conditions":[5.149E1,2.151E1,6.12E1,3.169E1,3.189E1,6.599E1,8.12E1,2.6E1,3.42E1,1.76E1,4E1,5.561E1,5.4E1,3.75E1,2.752E1,3.011E1,2.456E1,1.923E1,2.084E1,3.45E1,3.47E1,2.752E1,3.59E1,5.7E1,6.021E1,2.87E1,9.3501014E-1,7.169E1,6.474E1,2.74E1,7.225E1,1.2E1,4.18E1,2.442E1,2.87E1,2.7E1,5.732E1,3.54E1,2.4E1,-5.98742E-1,3.6E1,4.6E1,3.1E1,2.3E1,3.112E1,4.6E1,2.801E1,4.624E1,5.109E1,5.805E1,5.846E1,2.83E1,3.19E1,6.892E1,6.949E1,-2.3293686E-1,6.472E1,4.4162622E-1,1.1603413E-1,3.78E1,7.897E1,-1.0124512E-1,1.3365473E-1,-6.1890274E-1,9.7254306E-2,-3.157464E-1,2.64568E-1,-8.6665966E-2,-5.7827693E-1,-1.5745182E-1,-5.421404E-2,2.1509062E-1,-1.7574908E-1,-6.699772E-2,-4.2181525E-1,1.974776E-1,-2.1079433E-1,-5.3754963E-2,-3.934902E-1,1.5625036E-1,-1.0971916E-1,-6.8677805E-2,-3.409557E-1,4.0970904E-1,-4.7525246E-2,-3.6244264E-1,-1.4938416E-2,-1.5601383E-1,2.6024222E-1,9.9317807E-1,-4.1657638E-2,3.5174194E-1,1.3647747E0,-1.3090399E-1,6.708721E-1,-1.0010226E0,1.1169399E0,4.1047874E-1,-2.4115677E-1,1.6080551E-1,3.1554986E-2,5.930287E-1,1.4383355E-1,6.338722E-1,1.0884198E0,6.847206E-1,2.2499235E-1,4.281581E-1,3.395729E-2,1.9047425E0,5.2066153E-1,2.4765956E-1,7.979249E-1],"split_indices":[2,2,3,4,3,4,3,1,0,4,1,4,1,0,4,4,4,2,3,0,0,4,0,3,4,0,0,2,3,0,4,1,0,4,0,0,4,0,1,0,0,1,1,1,4,1,4,4,4,2,2,0,0,3,4,0,2,0,0,0,2,0,0,0,0,0,0,0,0,0,0,0,0,0,0,0,0,0,0,0,0,0,0,0,0,0,0,0,0,0,0,0,0,0,0,0,0,0,0,0,0,0,0,0,0,0,0,0,0,0,0,0,0],"split_type":[0,0,0,0,0,0,0,0,0,0,0,0,0,0,0,0,0,0,0,0,0,0,0,0,0,0,0,0,0,0,0,0,0,0,0,0,0,0,0,0,0,0,0,0,0,0,0,0,0,0,0,0,0,0,0,0,0,0,0,0,0,0,0,0,0,0,0,0,0,0,0,0,0,0,0,0,0,0,0,0,0,0,0,0,0,0,0,0,0,0,0,0,0,0,0,0,0,0,0,0,0,0,0,0,0,0,0,0,0,0,0,0,0],"sum_hessian":[1.277E3,1.043E3,2.34E2,3.29E2,7.14E2,1.11E2,1.23E2,3.03E2,2.6E1,4.49E2,2.65E2,9.2E1,1.9E1,1.03E2,2E1,2.2E1,2.81E2,1.8E1,8E0,1.9E1,4.3E2,1.48E2,1.17E2,6.7E1,2.5E1,7E0,1.2E1,9.7E1,6E0,5E0,1.5E1,1.7E1,5E0,2.41E2,4E1,7E0,1.1E1,4E0,4E0,6E0,1.3E1,2.45E2,1.85E2,3.2E1,1.16E2,1.1E2,7E0,3E1,3.7E1,1.1E1,1.4E1,3E0,4E0,7.3E1,2.4E1,1E0,5E0,4E0,1E0,7E0,8E0,5E0,1.2E1,3E0,2E0,2.38E2,3E0,3E0,3.7E1,1E0,6E0,9E0,2E0,1E0,3E0,2E0,2E0,4E0,9E0,9E1,1.55E2,1.29E2,5.6E1,1.3E1,1.9E1,2.6E1,9E1,1.8E1,9.2E1,6E0,1E0,1.9E1,1.1E1,2.9E1,8E0,9E0,2E0,1E1,4E0,2E0,1E0,3E0,1E0,5.5E1,1.8E1,1.1E1,1.3E1,3E0,2E0,6E0,1E0,2E0,6E0],"tree_param":{"num_deleted":"0","num_feature":"5","num_nodes":"113","size_leaf_vector":"1"}},{"base_weights":[9.826855E-2,-1.1550685E0,4.4495463E0,-2.6978433E0,-3.8658842E-1,2.5839558E0,6.606493E0,-2.8987708E0,-3.3562928E-1,-3.6384015E0,-2.6423258E-1,6.086218E0,1.5495498E0,2.568544E0,7.2215333E0,-4.336309E-1,-3.089549E0,4.3110505E-1,-1.9169985E0,-6.071477E-1,-2.8482125E0,-1.5183055E-1,-2.917133E0,1.2809117E0,6.664938E0,-2.598893E0,2.9457276E0,-8.095729E-1,4.2993836E0,6.37877E0,1.1984784E1,5.6682056E-1,-3.3627136E0,-2.767344E0,-4.9159904E0,-4.2205682E-1,1.6569598E0,-3.3760238E0,-7.457352E-2,-1.962829E0,-5.1117975E-1,2.2217164E0,-3.427786E-1,-5.300199E-1,-4.9253716E0,3.0103952E-1,9.594202E-2,1.4888363E0,7.3766255E0,4.2871866E0,-4.7859654E0,6.2161803E0,1.1523906E0,2.0415382E0,4.837064E0,6.799834E0,2.3920927E0,1.5780674E1,6.2163105E0,-9.280796E-2,1.2131729E-1,-5.724851E-1,9.077072E-2,-3.498759E-1,-2.0431042E-1,-2.4763472E-1,-5.524754E-1,6.380384E-2,-1.2704161E-1,2.1795905E-1,-1.00072764E-1,-6.3647844E-2,-3.9017907E-1,1.8431245E-1,-1.9674136E-1,-5.131736E-2,-3.0333194E-1,1.2303298E0,-5.630814E-2,-2.75306E-1,-1.1630333E-2,-3.034589E-1,4.0842086E-1,-7.158989E-1,-2.8890306E-1,-5.520153E-2,4.9593292E-2,2.0837079E-1,-4.453249E-2,8.883425E-1,3.3759794E-1,-2.8702435E-1,1.2162179E0,2.3448339E-1,-9.220768E-1,1.0772432E0,-3.461432E-1,-5.152722E-1,4.1999483E-1,2.2792874E-1,5.4527093E-2,6.0905063E-1,2.8926125E-1,1.1841927E0,6.1556524E-1,4.6144038E-1,9.819255E-2,2.1278179E0,9.4855577E-1,-6.683464E-2,7.295311E-1],"categories":[],"categories_nodes":[],"categories_segments":[],"categories_sizes":[],"default_left":[0,0,0,0,0,0,0,0,0,0,0,0,0,0,0,0,0,0,0,0,0,0,0,0,0,0,0,0,0,0,0,0,0,0,0,0,0,0,0,0,0,0,0,0,0,0,0,0,0,0,0,0,0,0,0,0,0,0,0,0,0,0,0,0,0,0,0,0,0,0,0,0,0,0,0,0,0,0,0,0,0,0,0,0,0,0,0,0,0,0,0,0,0,0,0,0,0,0,0,0,0,0,0,0,0,0,0,0,0,0,0],"id":16,"left_children":[1,3,5,7,9,11,13,15,17,19,21,23,25,27,29,31,33,35,37,-1,39,41,43,45,47,49,51,-1,53,55,57,59,61,63,65,67,69,71,73,75,-1,77,79,81,83,-1,85,87,89,91,93,95,97,99,101,103,105,107,109,-1,-1,-1,-1,-1,-1,-1,-1,-1,-1,-1,-1,-1,-1,-1,-1,-1,-1,-1,-1,-1,-1,-1,-1,-1,-1,-1,-1,-1,-1,-1,-1,-1,-1,-1,-1,-1,-1,-1,-1,-1,-1,-1,-1,-1,-1,-1,-1,-1,-1,-1,-1],"loss_changes":[6.974863E3,1.1762498E3,1.1337876E3,1.5565625E2,2.6322986E2,5.5209705E2,3.0927295E2,1.4162964E2,3.3563663E1,2.8849304E1,1.9069778E2,8.8795044E1,7.084831E2,3.8551138E2,3.8118115E2,6.9305374E1,1.5234961E2,2.0570528E1,2.3941536E1,0E0,3.0049225E1,2.7994763E2,1.220307E2,9.958103E0,1.0321423E2,4.8738943E2,5.265539E2,0E0,1.0762909E1,1.4992017E2,2.522461E2,1.85181E1,6.5720406E1,1.2104382E2,4.7210632E1,1.1602672E1,1.3293089E1,4.7184105E0,2.1775665E1,2.3272854E1,0E0,1.2983853E3,3.1137106E2,1.626304E2,4.2995117E1,0E0,1.3104706E0,6.6808157E0,1.3277051E2,4.8582602E2,7.805895E2,1.4482847E3,1.1745526E3,5.3585243E-1,1.4066864E1,2.161792E2,2.9941132E1,1.0963159E2,6.430417E1,0E0,0E0,0E0,0E0,0E0,0E0,0E0,0E0,0E0,0E0,0E0,0E0,0E0,0E0,0E0,0E0,0E0,0E0,0E0,0E0,0E0,0E0,0E0,0E0,0E0,0E0,0E0,0E0,0E0,0E0,0E0,0E0,0E0,0E0,0E0,0E0,0E0,0E0,0E0,0E0,0E0,0E0,0E0,0E0,0E0,0E0,0E0,0E0,0E0,0E0,0E0,0E0],"parents":[2147483647,0,0,1,1,2,2,3,3,4,4,5,5,6,6,7,7,8,8,9,9,10,10,11,11,12,12,13,13,14,14,15,15,16,16,17,17,18,18,20,20,21,21,22,22,23,23,24,24,25,25,26,26,28,28,29,29,30,30,31,31,32,32,33,33,34,34,35,35,36,36,37,37,38,38,39,39,41,41,42,42,43,43,44,44,46,46,47,47,48,48,49,49,50,50,51,51,52,52,53,53,54,54,55,55,56,56,57,57,58,58],"right_children":[2,4,6,8,10,12,14,16,18,20,22,24,26,28,30,32,34,36,38,-1,40,42,44,46,48,50,52,-1,54,56,58,60,62,64,66,68,70,72,74,76,-1,78,80,82,84,-1,86,88,90,92,94,96,98,100,102,104,106,108,110,-1,-1,-1,-1,-1,-1,-1,-1,-1,-1,-1,-1,-1,-1,-1,-1,-1,-1,-1,-1,-1,-1,-1,-1,-1,-1,-1,-1,-1,-1,-1,-1,-1,-1,-1,-1,-1,-1,-1,-1,-1,-1,-1,-1,-1,-1,-1,-1,-1,-1,-1,-1],"split_conditions":[4.46E1,2.151E1,6.081E1,3.169E1,1.795E1,3.726E1,4.835E1,2.6E1,3.42E1,3.3E1,4.21E1,2.672E1,4.624E1,6.117E1,8.12E1,3.011E1,2.456E1,2.014E1,2.084E1,-6.071477E-1,2.726E1,2.077E1,2.801E1,3.04E1,4.69E1,2.78E1,5.573E1,-8.095729E-1,6.355E1,7.8E1,7.225E1,1.2E1,4.18E1,1.547E1,3.06E1,4.932E1,5.732E1,3.54E1,2.4E1,3.55E1,-5.1117975E-1,2.8E1,2.29E1,1.6E1,3.057E1,3.0103952E-1,3.23E1,2.71E1,5.624E1,2.6E1,4.032E1,5.805E1,6.021E1,3.28E1,7.601E1,6.267E1,5.732E1,8.416E1,8.416E1,-9.280796E-2,1.2131729E-1,-5.724851E-1,9.077072E-2,-3.498759E-1,-2.0431042E-1,-2.4763472E-1,-5.524754E-1,6.380384E-2,-1.2704161E-1,2.1795905E-1,-1.00072764E-1,-6.3647844E-2,-3.9017907E-1,1.8431245E-1,-1.9674136E-1,-5.131736E-2,-3.0333194E-1,1.2303298E0,-5.630814E-2,-2.75306E-1,-1.1630333E-2,-3.034589E-1,4.0842086E-1,-7.158989E-1,-2.8890306E-1,-5.520153E-2,4.9593292E-2,2.0837079E-1,-4.453249E-2,8.883425E-1,3.3759794E-1,-2.8702435E-1,1.2162179E0,2.3448339E-1,-9.220768E-1,1.0772432E0,-3.461432E-1,-5.152722E-1,4.1999483E-1,2.2792874E-1,5.4527093E-2,6.0905063E-1,2.8926125E-1,1.1841927E0,6.1556524E-1,4.6144038E-1,9.819255E-2,2.1278179E0,9.4855577E-1,-6.683464E-2,7.295311E-1],"split_indices":[3,2,2,4,4,4,4,1,0,0,0,4,4,2,2,4,4,2,3,0,3,4,2,0,3,0,4,0,2,1,4,1,0,2,0,4,4,0,1,0,0,1,4,1,2,0,0,0,2,0,4,2,4,0,2,2,4,2,2,0,0,0,0,0,0,0,0,0,0,0,0,0,0,0,0,0,0,0,0,0,0,0,0,0,0,0,0,0,0,0,0,0,0,0,0,0,0,0,0,0,0,0,0,0,0,0,0,0,0,0,0],"split_type":[0,0,0,0,0,0,0,0,0,0,0,0,0,0,0,0,0,0,0,0,0,0,0,0,0,0,0,0,0,0,0,0,0,0,0,0,0,0,0,0,0,0,0,0,0,0,0,0,0,0,0,0,0,0,0,0,0,0,0,0,0,0,0,0,0,0,0,0,0,0,0,0,0,0,0,0,0,0,0,0,0,0,0,0,0,0,0,0,0,0,0,0,0,0,0,0,0,0,0,0,0,0,0,0,0,0,0,0,0,0,0],"sum_hessian":[1.277E3,9.92E2,2.85E2,3.29E2,6.63E2,1.54E2,1.31E2,3.03E2,2.6E1,2.3E1,6.4E2,3.4E1,1.2E2,1.8E1,1.13E2,2.2E1,2.81E2,1.8E1,8E0,4E0,1.9E1,6.15E2,2.5E1,4E0,3E1,3E1,9E1,2E0,1.6E1,9.8E1,1.5E1,1.7E1,5E0,2.41E2,4E1,1.1E1,7E0,4E0,4E0,1.5E1,4E0,4.5E1,5.7E2,1.2E1,1.3E1,1E0,3E0,4E0,2.6E1,7E0,2.3E1,3.1E1,5.9E1,4E0,1.2E1,8.8E1,1E1,8E0,7E0,5E0,1.2E1,3E0,2E0,1.18E2,1.23E2,9E0,3.1E1,5E0,6E0,6E0,1E0,1E0,3E0,2E0,2E0,7E0,8E0,9E0,3.6E1,4.8E1,5.22E2,8E0,4E0,5E0,8E0,1E0,2E0,3E0,1E0,1.8E1,8E0,4E0,3E0,9E0,1.4E1,2.1E1,1E1,1.9E1,4E1,3E0,1E0,6E0,6E0,8E0,8E1,3E0,7E0,3E0,5E0,1E0,6E0],"tree_param":{"num_deleted":"0","num_feature":"5","num_nodes":"111","size_leaf_vector":"1"}},{"base_weights":[9.2610605E-2,-9.1346884E-1,4.561778E0,-2.1558836E0,-1.5460412E-2,3.4981441E0,7.3490157E0,-3.118015E0,-1.7261081E0,3.0667148E0,-1.9232358E-1,2.9471552E0,7.120926E0,8.453423E0,5.0127506E0,-1.6006006E0,-3.4345365E0,-1.600498E0,-4.6597133E0,-4.10321E-2,4.419693E0,-5.4025598E0,-1.0928222E-1,3.2108047E0,-2.1669304E0,5.8185654E0,1.0385239E1,4.794998E0,1.0520337E1,1.4297082E0,6.8283925E0,-2.7768183E0,-6.313343E-1,-2.669476E0,-4.0275955E0,-3.0748556E0,-1.3762718E0,-5.03231E0,-2.805748E-2,1.4669127E0,-3.0466638E0,1.564244E0,4.9385114E0,1.2449932E-2,-6.109005E0,6.370471E0,-1.7826663E-1,4.1625266E0,1.3383172E0,-5.829405E-1,2.5461832E-2,2.9595256E0,7.368906E0,1.2221597E0,1.5199013E-1,5.7274777E-1,2.6446745E0,8.127402E0,1.585439E1,-6.3444453E-1,4.1685104E0,3.6205235E0,9.1827124E-1,-3.0565676E-1,-1.0119642E-1,-1.5679613E-1,6.630909E-2,1.1627754E-1,-2.8496248E-1,-2.6881456E-1,-4.732326E-1,2.5031006E-1,-3.4542724E-1,-5.9959676E-2,-2.0737147E-1,-8.020268E-2,-5.3751355E-1,1.9409429E-1,5.0764706E-2,-7.521458E-2,-3.560788E-1,2.9765321E-2,1.8064785E-1,2.3786364E-1,6.2335527E-1,-1.6478911E-1,-6.510894E-1,-1.3315137E-2,9.6555704E-1,-1.5455815E-1,2.5799195E-3,7.2164214E-1,2.0899312E-1,3.0557466E-1,-1.3906144E-1,-1.3730001E-1,1.8815905E-1,1.1501335E-1,4.4813845E-1,7.7997905E-1,1.5300313E-1,3.2874155E-1,1.340765E-1,1.0464674E0,3.3134094E-1,